{"learner":{"attributes":{"scikit_learn":"{\"_estimator_type\": \"ranker\"}"},"feature_names":["last_speed_figure","avg_speed_figure_last5","best_speed_figure_last5","days_since_last_run","consistency_index","form_momentum","avg_beaten_lengths_5","fitness_score","spell_status","benchmark_rating","career_win_pct","career_place_pct","career_starts","class_numeric","class_change","weight_carried_kg","weight_change_kg","weight_vs_field_avg","is_apprentice","apprentice_claim","last_distance_m","distance_change","distance_win_pct","track_runs","track_win_pct","track_distance_win_pct","has_track_experience","has_track_win","going_win_pct","is_wet_track_specialist","running_style","barrier_draw","barrier_bias_score","field_size","leader_count_in_field","trainer_win_pct","trainer_place_pct","trainer_first_up_win_pct","jockey_win_pct","jockey_place_pct","combo_win_pct","same_jockey","jockey_upgrade_score","gear_change_signal","blinkers_first_time","trainer_at_venue_win_pct","current_odds","odds_movement","market_implied_prob","is_favourite","barrier_draw_ratio","speed_vs_field_avg","jockey_trainer_interaction","class_distance_affinity","odds_x_speed","recency_weighted_speed","career_stage","spell_status_te","running_style_te"],"feature_types":["float","float","float","float","float","float","float","int","int","float","float","float","int","float","float","float","float","float","int","int","float","float","float","int","float","float","int","int","float","float","int","float","int","int","int","float","float","float","float","float","float","float","float","int","int","float","float","int","float","int","float","float","float","float","float","float","float","float","float"],"gradient_booster":{"model":{"cats":{"enc":[],"feature_segments":[],"sorted_idx":[]},"gbtree_model_param":{"num_parallel_tree":"1","num_trees":"1208"},"iteration_indptr":[0,1,2,3,4,5,6,7,8,9,10,11,12,13,14,15,16,17,18,19,20,21,22,23,24,25,26,27,28,29,30,31,32,33,34,35,36,37,38,39,40,41,42,43,44,45,46,47,48,49,50,51,52,53,54,55,56,57,58,59,60,61,62,63,64,65,66,67,68,69,70,71,72,73,74,75,76,77,78,79,80,81,82,83,84,85,86,87,88,89,90,91,92,93,94,95,96,97,98,99,100,101,102,103,104,105,106,107,108,109,110,111,112,113,114,115,116,117,118,119,120,121,122,123,124,125,126,127,128,129,130,131,132,133,134,135,136,137,138,139,140,141,142,143,144,145,146,147,148,149,150,151,152,153,154,155,156,157,158,159,160,161,162,163,164,165,166,167,168,169,170,171,172,173,174,175,176,177,178,179,180,181,182,183,184,185,186,187,188,189,190,191,192,193,194,195,196,197,198,199,200,201,202,203,204,205,206,207,208,209,210,211,212,213,214,215,216,217,218,219,220,221,222,223,224,225,226,227,228,229,230,231,232,233,234,235,236,237,238,239,240,241,242,243,244,245,246,247,248,249,250,251,252,253,254,255,256,257,258,259,260,261,262,263,264,265,266,267,268,269,270,271,272,273,274,275,276,277,278,279,280,281,282,283,284,285,286,287,288,289,290,291,292,293,294,295,296,297,298,299,300,301,302,303,304,305,306,307,308,309,310,311,312,313,314,315,316,317,318,319,320,321,322,323,324,325,326,327,328,329,330,331,332,333,334,335,336,337,338,339,340,341,342,343,344,345,346,347,348,349,350,351,352,353,354,355,356,357,358,359,360,361,362,363,364,365,366,367,368,369,370,371,372,373,374,375,376,377,378,379,380,381,382,383,384,385,386,387,388,389,390,391,392,393,394,395,396,397,398,399,400,401,402,403,404,405,406,407,408,409,410,411,412,413,414,415,416,417,418,419,420,421,422,423,424,425,426,427,428,429,430,431,432,433,434,435,436,437,438,439,440,441,442,443,444,445,446,447,448,449,450,451,452,453,454,455,456,457,458,459,460,461,462,463,464,465,466,467,468,469,470,471,472,473,474,475,476,477,478,479,480,481,482,483,484,485,486,487,488,489,490,491,492,493,494,495,496,497,498,499,500,501,502,503,504,505,506,507,508,509,510,511,512,513,514,515,516,517,518,519,520,521,522,523,524,525,526,527,528,529,530,531,532,533,534,535,536,537,538,539,540,541,542,543,544,545,546,547,548,549,550,551,552,553,554,555,556,557,558,559,560,561,562,563,564,565,566,567,568,569,570,571,572,573,574,575,576,577,578,579,580,581,582,583,584,585,586,587,588,589,590,591,592,593,594,595,596,597,598,599,600,601,602,603,604,605,606,607,608,609,610,611,612,613,614,615,616,617,618,619,620,621,622,623,624,625,626,627,628,629,630,631,632,633,634,635,636,637,638,639,640,641,642,643,644,645,646,647,648,649,650,651,652,653,654,655,656,657,658,659,660,661,662,663,664,665,666,667,668,669,670,671,672,673,674,675,676,677,678,679,680,681,682,683,684,685,686,687,688,689,690,691,692,693,694,695,696,697,698,699,700,701,702,703,704,705,706,707,708,709,710,711,712,713,714,715,716,717,718,719,720,721,722,723,724,725,726,727,728,729,730,731,732,733,734,735,736,737,738,739,740,741,742,743,744,745,746,747,748,749,750,751,752,753,754,755,756,757,758,759,760,761,762,763,764,765,766,767,768,769,770,771,772,773,774,775,776,777,778,779,780,781,782,783,784,785,786,787,788,789,790,791,792,793,794,795,796,797,798,799,800,801,802,803,804,805,806,807,808,809,810,811,812,813,814,815,816,817,818,819,820,821,822,823,824,825,826,827,828,829,830,831,832,833,834,835,836,837,838,839,840,841,842,843,844,845,846,847,848,849,850,851,852,853,854,855,856,857,858,859,860,861,862,863,864,865,866,867,868,869,870,871,872,873,874,875,876,877,878,879,880,881,882,883,884,885,886,887,888,889,890,891,892,893,894,895,896,897,898,899,900,901,902,903,904,905,906,907,908,909,910,911,912,913,914,915,916,917,918,919,920,921,922,923,924,925,926,927,928,929,930,931,932,933,934,935,936,937,938,939,940,941,942,943,944,945,946,947,948,949,950,951,952,953,954,955,956,957,958,959,960,961,962,963,964,965,966,967,968,969,970,971,972,973,974,975,976,977,978,979,980,981,982,983,984,985,986,987,988,989,990,991,992,993,994,995,996,997,998,999,1000,1001,1002,1003,1004,1005,1006,1007,1008,1009,1010,1011,1012,1013,1014,1015,1016,1017,1018,1019,1020,1021,1022,1023,1024,1025,1026,1027,1028,1029,1030,1031,1032,1033,1034,1035,1036,1037,1038,1039,1040,1041,1042,1043,1044,1045,1046,1047,1048,1049,1050,1051,1052,1053,1054,1055,1056,1057,1058,1059,1060,1061,1062,1063,1064,1065,1066,1067,1068,1069,1070,1071,1072,1073,1074,1075,1076,1077,1078,1079,1080,1081,1082,1083,1084,1085,1086,1087,1088,1089,1090,1091,1092,1093,1094,1095,1096,1097,1098,1099,1100,1101,1102,1103,1104,1105,1106,1107,1108,1109,1110,1111,1112,1113,1114,1115,1116,1117,1118,1119,1120,1121,1122,1123,1124,1125,1126,1127,1128,1129,1130,1131,1132,1133,1134,1135,1136,1137,1138,1139,1140,1141,1142,1143,1144,1145,1146,1147,1148,1149,1150,1151,1152,1153,1154,1155,1156,1157,1158,1159,1160,1161,1162,1163,1164,1165,1166,1167,1168,1169,1170,1171,1172,1173,1174,1175,1176,1177,1178,1179,1180,1181,1182,1183,1184,1185,1186,1187,1188,1189,1190,1191,1192,1193,1194,1195,1196,1197,1198,1199,1200,1201,1202,1203,1204,1205,1206,1207,1208],"tree_info":[0,0,0,0,0,0,0,0,0,0,0,0,0,0,0,0,0,0,0,0,0,0,0,0,0,0,0,0,0,0,0,0,0,0,0,0,0,0,0,0,0,0,0,0,0,0,0,0,0,0,0,0,0,0,0,0,0,0,0,0,0,0,0,0,0,0,0,0,0,0,0,0,0,0,0,0,0,0,0,0,0,0,0,0,0,0,0,0,0,0,0,0,0,0,0,0,0,0,0,0,0,0,0,0,0,0,0,0,0,0,0,0,0,0,0,0,0,0,0,0,0,0,0,0,0,0,0,0,0,0,0,0,0,0,0,0,0,0,0,0,0,0,0,0,0,0,0,0,0,0,0,0,0,0,0,0,0,0,0,0,0,0,0,0,0,0,0,0,0,0,0,0,0,0,0,0,0,0,0,0,0,0,0,0,0,0,0,0,0,0,0,0,0,0,0,0,0,0,0,0,0,0,0,0,0,0,0,0,0,0,0,0,0,0,0,0,0,0,0,0,0,0,0,0,0,0,0,0,0,0,0,0,0,0,0,0,0,0,0,0,0,0,0,0,0,0,0,0,0,0,0,0,0,0,0,0,0,0,0,0,0,0,0,0,0,0,0,0,0,0,0,0,0,0,0,0,0,0,0,0,0,0,0,0,0,0,0,0,0,0,0,0,0,0,0,0,0,0,0,0,0,0,0,0,0,0,0,0,0,0,0,0,0,0,0,0,0,0,0,0,0,0,0,0,0,0,0,0,0,0,0,0,0,0,0,0,0,0,0,0,0,0,0,0,0,0,0,0,0,0,0,0,0,0,0,0,0,0,0,0,0,0,0,0,0,0,0,0,0,0,0,0,0,0,0,0,0,0,0,0,0,0,0,0,0,0,0,0,0,0,0,0,0,0,0,0,0,0,0,0,0,0,0,0,0,0,0,0,0,0,0,0,0,0,0,0,0,0,0,0,0,0,0,0,0,0,0,0,0,0,0,0,0,0,0,0,0,0,0,0,0,0,0,0,0,0,0,0,0,0,0,0,0,0,0,0,0,0,0,0,0,0,0,0,0,0,0,0,0,0,0,0,0,0,0,0,0,0,0,0,0,0,0,0,0,0,0,0,0,0,0,0,0,0,0,0,0,0,0,0,0,0,0,0,0,0,0,0,0,0,0,0,0,0,0,0,0,0,0,0,0,0,0,0,0,0,0,0,0,0,0,0,0,0,0,0,0,0,0,0,0,0,0,0,0,0,0,0,0,0,0,0,0,0,0,0,0,0,0,0,0,0,0,0,0,0,0,0,0,0,0,0,0,0,0,0,0,0,0,0,0,0,0,0,0,0,0,0,0,0,0,0,0,0,0,0,0,0,0,0,0,0,0,0,0,0,0,0,0,0,0,0,0,0,0,0,0,0,0,0,0,0,0,0,0,0,0,0,0,0,0,0,0,0,0,0,0,0,0,0,0,0,0,0,0,0,0,0,0,0,0,0,0,0,0,0,0,0,0,0,0,0,0,0,0,0,0,0,0,0,0,0,0,0,0,0,0,0,0,0,0,0,0,0,0,0,0,0,0,0,0,0,0,0,0,0,0,0,0,0,0,0,0,0,0,0,0,0,0,0,0,0,0,0,0,0,0,0,0,0,0,0,0,0,0,0,0,0,0,0,0,0,0,0,0,0,0,0,0,0,0,0,0,0,0,0,0,0,0,0,0,0,0,0,0,0,0,0,0,0,0,0,0,0,0,0,0,0,0,0,0,0,0,0,0,0,0,0,0,0,0,0,0,0,0,0,0,0,0,0,0,0,0,0,0,0,0,0,0,0,0,0,0,0,0,0,0,0,0,0,0,0,0,0,0,0,0,0,0,0,0,0,0,0,0,0,0,0,0,0,0,0,0,0,0,0,0,0,0,0,0,0,0,0,0,0,0,0,0,0,0,0,0,0,0,0,0,0,0,0,0,0,0,0,0,0,0,0,0,0,0,0,0,0,0,0,0,0,0,0,0,0,0,0,0,0,0,0,0,0,0,0,0,0,0,0,0,0,0,0,0,0,0,0,0,0,0,0,0,0,0,0,0,0,0,0,0,0,0,0,0,0,0,0,0,0,0,0,0,0,0,0,0,0,0,0,0,0,0,0,0,0,0,0,0,0,0,0,0,0,0,0,0,0,0,0,0,0,0,0,0,0,0,0,0,0,0,0,0,0,0,0,0,0,0,0,0,0,0,0,0,0,0,0,0,0,0,0,0,0,0,0,0,0,0,0,0,0,0,0,0,0,0,0,0,0,0,0,0,0,0,0,0,0,0,0,0,0,0,0,0,0,0,0,0,0,0,0,0,0,0,0,0,0,0,0,0,0,0,0,0,0,0,0,0,0,0,0,0,0,0,0,0,0,0,0,0,0,0,0,0,0,0,0,0,0,0,0,0,0,0,0,0,0,0,0,0,0,0,0,0,0,0,0,0,0,0,0,0,0,0,0,0,0,0,0,0,0,0,0,0,0,0,0,0,0,0,0,0,0,0,0,0,0,0,0,0,0,0,0,0,0,0,0,0,0,0,0,0,0,0,0,0,0,0,0,0,0,0,0,0,0,0,0,0,0,0,0,0,0,0,0,0,0,0,0,0,0,0,0,0,0,0,0,0,0,0,0,0,0,0,0,0,0,0,0,0,0,0,0,0,0,0,0,0,0,0,0,0,0,0,0,0,0,0,0,0,0,0,0,0,0,0,0,0,0,0,0],"trees":[{"base_weights":[-8.3952403E-4,2.09486E-1,-2.758548E-1,3.6599022E-1,1.3094917E-1,-7.392798E-2,-3.787739E-1,6.7465175E-3,3.2007235E-1,1.0716608E-1,3.3505628E-1,-1.00398265E-1,2.3049442E-3,-2.969114E-1,-7.092625E-3,2.5784401E-3,3.5585332E-1,4.7602165E-3,1.6157402E-1,3.8482249E-3,7.69757E-3,-1.701178E-1,-4.890093E-4,-5.9245476E-3,-3.284854E-3,4.4305995E-3,4.498453E-1,6.5883614E-2,-1.4212314E-3,1.9015644E-1,7.6880085E-4,-2.8654528E-3,4.186157E-4,4.254741E-3,8.011107E-3,4.724029E-4,3.7660713E-3,1.5673026E-1,4.02735E-3,3.759722E-3,1.7935965E-3],"categories":[],"categories_nodes":[],"categories_segments":[],"categories_sizes":[],"default_left":[0,0,0,0,0,0,0,0,0,0,0,0,0,0,0,0,0,0,0,0,0,0,0,0,0,0,0,0,0,0,0,0,0,0,0,0,0,0,0,0,0],"id":0,"left_children":[1,3,5,7,9,11,13,-1,15,17,19,21,-1,23,-1,-1,25,27,29,-1,-1,31,-1,-1,-1,-1,33,35,-1,37,-1,-1,-1,-1,-1,-1,-1,39,-1,-1,-1],"loss_changes":[2.8936658E2,3.4839897E1,4.5052094E1,4.9425964E0,9.160503E0,4.6074276E0,1.4756256E1,0E0,3.298584E0,9.418518E0,2.5643158E0,3.0125985E0,0E0,6.8439407E0,0E0,0E0,2.0475311E0,3.793909E0,3.3722038E0,0E0,0E0,2.1477375E0,0E0,0E0,0E0,0E0,2.8521004E0,2.4230514E0,0E0,2.7992535E0,0E0,0E0,0E0,0E0,0E0,0E0,0E0,2.0857162E0,0E0,0E0,0E0],"parents":[2147483647,0,0,1,1,2,2,3,3,4,4,5,5,6,6,8,8,9,9,10,10,11,11,13,13,16,16,17,17,18,18,21,21,26,26,27,27,29,29,37,37],"right_children":[2,4,6,8,10,12,14,-1,16,18,20,22,-1,24,-1,-1,26,28,30,-1,-1,32,-1,-1,-1,-1,34,36,-1,38,-1,-1,-1,-1,-1,-1,-1,40,-1,-1,-1],"split_conditions":[2E1,7.5E0,3.1E1,4.6E0,1.905E1,1.628E1,7.1E1,6.7465175E-3,9E0,1.1E1,2E0,1.3E1,2.3049442E-3,1.2E1,-7.092625E-3,2.5784401E-3,7.642977E-1,1.4E1,1E0,3.8482249E-3,7.69757E-3,2E1,-4.890093E-4,-5.9245476E-3,-3.284854E-3,4.4305995E-3,2.883E1,3.076923E1,-1.4212314E-3,3.235E1,7.6880085E-4,-2.8654528E-3,4.186157E-4,4.254741E-3,8.011107E-3,4.724029E-4,3.7660713E-3,9.5E0,4.02735E-3,3.759722E-3,1.7935965E-3],"split_indices":[46,46,46,46,40,40,46,0,33,33,23,33,0,33,0,0,4,46,43,0,0,10,0,0,0,0,39,10,0,39,0,0,0,0,0,0,0,46,0,0,0],"split_type":[0,0,0,0,0,0,0,0,0,0,0,0,0,0,0,0,0,0,0,0,0,0,0,0,0,0,0,0,0,0,0,0,0,0,0,0,0,0,0,0,0],"sum_hessian":[5.002638E3,2.8347031E3,2.167935E3,9.4716956E2,1.8875337E3,7.319329E2,1.4360022E3,2.7238904E2,6.747805E2,1.6905681E3,1.9696558E2,6.5864514E2,7.3287735E1,8.6928485E2,5.6671735E2,1.3998796E2,5.3479254E2,5.865885E2,1.1039796E3,1.5278436E2,4.4181217E1,3.1932727E2,3.3931787E2,2.932983E2,5.759866E2,3.7293195E2,1.6186061E2,3.7184772E2,2.1474078E2,8.710518E2,2.3292776E2,2.7335327E2,4.5974003E1,7.261451E1,8.924609E1,3.2059686E2,5.125086E1,6.4650146E2,2.2455037E2,1.3496458E2,5.1153687E2],"tree_param":{"num_deleted":"0","num_feature":"59","num_nodes":"41","size_leaf_vector":"1"}},{"base_weights":[-2.19952E-3,1.5524477E-1,-2.2249079E-1,2.7186742E-1,7.892193E-2,-1.2615456E-1,-3.7542546E-1,3.9865005E-1,2.3036985E-1,5.563921E-2,2.4685074E-1,-6.923421E-2,-2.0771058E-1,-3.0417E-1,-4.5959058E-1,4.8055486E-3,5.027882E-1,1.9375329E-1,3.405531E-1,-2.6046662E-2,1.03963055E-1,3.2052886E-1,1.1540603E-1,-9.5373005E-2,6.755388E-3,-3.272335E-1,-1.4427833E-1,-4.145291E-1,-3.8008415E-3,-5.4860383E-1,-3.848158E-1,4.1774306E-1,9.001164E-3,1.582654E-1,3.1726447E-1,2.0890532E-1,4.4442824E-1,-4.7978286E-2,1.9612816E-1,4.798811E-3,9.258872E-2,2.6500294E-1,7.96167E-3,4.639449E-4,3.874815E-3,-2.165644E-1,-6.332742E-2,-5.324512E-3,-1.8292297E-1,-5.6824177E-3,-1.23152815E-1,-3.548899E-3,-6.819255E-3,-6.0570145E-1,-5.196619E-3,-4.643704E-3,-7.768022E-3,8.030398E-3,3.4669826E-3,-3.0688753E-2,1.7939706E-1,7.149915E-3,3.950584E-3,5.4205447E-3,8.9787826E-2,3.484746E-3,7.2849947E-3,-3.195559E-3,-2.5815172E-2,-8.433181E-5,5.567687E-3,2.130019E-1,7.256192E-2,4.719602E-3,7.6773885E-4,-2.8995445E-1,1.6340273E-3,8.9351897E-4,-9.7017415E-2,-6.780745E-4,-4.7787717E-3,-9.587365E-2,-3.5742188E-3,-1.1117182E-2,-7.885264E-3,1.5846853E-3,-2.3909062E-3,4.4931207E-2,2.080527E-1,-9.835131E-4,3.798014E-3,-6.7657772E-3,-2.6515592E-3,2.1540283E-3,6.167143E-3,4.6715133E-2,1.6264434E-1,-2.3080848E-1,-7.114193E-3,-5.3162396E-2,-1.8630858E-1,-4.4898693E-3,-1.0047089E-3,4.4677807E-3,-1.5279099E-3,2.4770717E-3,4.7705644E-3,1.5973412E-4,-3.7236228E-3,1.2286899E-3,-1.0518186E-4,-1.3170413E-3,2.7885216E-3,-4.385472E-3,8.5487896E-5,-1.074478E-3,3.0167652E-3,4.2058754E-4,-3.275787E-3],"categories":[],"categories_nodes":[],"categories_segments":[],"categories_sizes":[],"default_left":[0,0,0,0,0,0,0,0,0,0,0,0,0,0,0,0,0,0,0,0,0,0,0,0,0,0,0,0,0,0,0,0,0,0,0,0,0,0,0,0,0,0,0,0,0,0,0,0,0,0,0,0,0,0,0,0,0,0,0,0,0,0,0,0,0,0,0,0,0,0,0,0,0,0,0,0,0,0,0,0,0,0,0,0,0,0,0,0,0,0,0,0,0,0,0,0,0,0,0,0,0,0,0,0,0,0,0,0,0,0,0,0,0,0,0,0,0,0,0],"id":1,"left_children":[1,3,5,7,9,11,13,15,17,19,21,23,25,27,29,-1,31,33,35,37,39,41,43,45,-1,47,49,51,-1,53,55,57,-1,59,61,63,65,67,69,-1,71,73,-1,-1,-1,75,77,-1,79,-1,81,-1,-1,83,-1,-1,-1,-1,-1,85,87,-1,-1,-1,89,-1,-1,-1,91,-1,-1,93,95,-1,-1,97,-1,-1,99,-1,-1,101,-1,-1,-1,-1,-1,103,105,-1,-1,107,-1,-1,-1,109,111,113,-1,115,117,-1,-1,-1,-1,-1,-1,-1,-1,-1,-1,-1,-1,-1,-1,-1,-1,-1,-1],"loss_changes":[3.556502E2,5.322682E1,6.2967697E1,1.2442215E1,1.4130978E1,1.2171726E1,9.902359E0,3.4548187E0,7.187752E0,1.2531255E1,4.260092E0,2.2184673E1,8.169472E0,3.343666E0,5.035736E0,0E0,2.4014626E0,5.861E0,6.07539E0,5.7485228E0,5.380739E0,3.8416157E0,2.0849178E0,5.7243595E0,0E0,2.7676735E0,3.8619165E0,2.3951302E0,0E0,3.5300827E0,3.7619019E0,3.3371983E0,0E0,4.149994E0,2.070486E0,4.1205606E0,3.5910912E0,4.2650857E0,4.2815547E0,0E0,4.5885468E0,3.4146461E0,0E0,0E0,0E0,7.529401E0,4.9837823E0,0E0,2.0718532E0,0E0,2.3254871E0,0E0,0E0,2.173355E0,0E0,0E0,0E0,0E0,0E0,2.0876455E0,3.6001892E0,0E0,0E0,0E0,3.372388E0,0E0,0E0,0E0,2.9618058E0,0E0,0E0,3.6593122E0,3.7987728E0,0E0,0E0,3.2220802E0,0E0,0E0,3.6068516E0,0E0,0E0,2.9399629E0,0E0,0E0,0E0,0E0,0E0,6.8800945E0,3.2227898E0,0E0,0E0,4.002284E0,0E0,0E0,0E0,2.794355E0,3.3235493E0,3.80762E0,0E0,3.843433E0,3.0598307E0,0E0,0E0,0E0,0E0,0E0,0E0,0E0,0E0,0E0,0E0,0E0,0E0,0E0,0E0,0E0,0E0,0E0,0E0],"parents":[2147483647,0,0,1,1,2,2,3,3,4,4,5,5,6,6,7,7,8,8,9,9,10,10,11,11,12,12,13,13,14,14,16,16,17,17,18,18,19,19,20,20,21,21,22,22,23,23,25,25,26,26,27,27,29,29,30,30,31,31,33,33,34,34,35,35,36,36,37,37,38,38,40,40,41,41,45,45,46,46,48,48,50,50,53,53,59,59,60,60,64,64,68,68,71,71,72,72,75,75,78,78,81,81,87,87,88,88,91,91,95,95,96,96,97,97,99,99,100,100],"right_children":[2,4,6,8,10,12,14,16,18,20,22,24,26,28,30,-1,32,34,36,38,40,42,44,46,-1,48,50,52,-1,54,56,58,-1,60,62,64,66,68,70,-1,72,74,-1,-1,-1,76,78,-1,80,-1,82,-1,-1,84,-1,-1,-1,-1,-1,86,88,-1,-1,-1,90,-1,-1,-1,92,-1,-1,94,96,-1,-1,98,-1,-1,100,-1,-1,102,-1,-1,-1,-1,-1,104,106,-1,-1,108,-1,-1,-1,110,112,114,-1,116,118,-1,-1,-1,-1,-1,-1,-1,-1,-1,-1,-1,-1,-1,-1,-1,-1,-1,-1],"split_conditions":[2E1,8.5E0,5.1E1,4.8E0,4.076E1,3.1E1,9.1E1,1.053E1,9.932E1,1.1E1,8E0,2.7E1,1.2E1,1.1E1,1.4E1,4.8055486E-3,1.2861309E0,1.4E1,6.957169E-1,1.765E1,6.666667E-2,2.6086956E1,7.272222E-1,1E1,6.755388E-3,6.866308E-1,1.1764706E-1,2.2222221E1,-3.8008415E-3,6.004988E-1,2.01E2,1.7877778E-1,9.001164E-3,-1.969697E1,8.49432E-2,3.6363636E1,2.581E1,-1.417475E0,1E0,4.798811E-3,1.8181819E-1,9.87E1,7.96167E-3,4.639449E-4,3.874815E-3,9.38E0,1.7E1,-5.324512E-3,9.1E1,-5.6824177E-3,8.947368E-1,-3.548899E-3,-6.819255E-3,1E1,-5.196619E-3,-4.643704E-3,-7.768022E-3,8.030398E-3,3.4669826E-3,1.2E1,1.795E1,7.149915E-3,3.950584E-3,5.4205447E-3,6E0,3.484746E-3,7.2849947E-3,-3.195559E-3,1E0,-8.433181E-5,5.567687E-3,2E0,1.048446E0,4.719602E-3,7.6773885E-4,1.041E2,1.6340273E-3,8.9351897E-4,1E1,-6.780745E-4,-4.7787717E-3,-5.8638887E0,-3.5742188E-3,-1.1117182E-2,-7.885264E-3,1.5846853E-3,-2.3909062E-3,7.69E0,9.8E-1,-9.835131E-4,3.798014E-3,1.6666666E1,-2.6515592E-3,2.1540283E-3,6.167143E-3,6.5217394E-1,-2E0,5.95939E-1,-7.114193E-3,1.2136E0,9.3475E1,-4.4898693E-3,-1.0047089E-3,4.4677807E-3,-1.5279099E-3,2.4770717E-3,4.7705644E-3,1.5973412E-4,-3.7236228E-3,1.2286899E-3,-1.0518186E-4,-1.3170413E-3,2.7885216E-3,-4.385472E-3,8.5487896E-5,-1.074478E-3,3.0167652E-3,4.2058754E-4,-3.275787E-3],"split_indices":[46,46,46,46,39,46,46,40,1,33,31,46,33,33,33,0,51,33,4,40,6,10,51,33,0,4,50,11,0,4,46,51,0,29,58,11,36,17,23,0,50,0,0,0,0,40,3,0,3,0,50,0,0,33,0,0,0,0,0,53,39,0,0,0,31,0,0,0,44,0,0,7,52,0,0,2,0,0,37,0,0,51,0,0,0,0,0,39,42,0,0,24,0,0,0,50,5,4,0,52,1,0,0,0,0,0,0,0,0,0,0,0,0,0,0,0,0,0,0],"split_type":[0,0,0,0,0,0,0,0,0,0,0,0,0,0,0,0,0,0,0,0,0,0,0,0,0,0,0,0,0,0,0,0,0,0,0,0,0,0,0,0,0,0,0,0,0,0,0,0,0,0,0,0,0,0,0,0,0,0,0,0,0,0,0,0,0,0,0,0,0,0,0,0,0,0,0,0,0,0,0,0,0,0,0,0,0,0,0,0,0,0,0,0,0,0,0,0,0,0,0,0,0,0,0,0,0,0,0,0,0,0,0,0,0,0,0,0,0,0,0],"sum_hessian":[1.0254123E4,5.98008E3,4.274043E3,2.3654958E3,3.6145845E3,2.6222644E3,1.6517784E3,5.83298E2,1.7821979E3,3.1744827E3,4.4010162E2,1.5444246E3,1.0778398E3,8.945211E2,7.572573E2,3.7712952E2,2.0616849E2,1.3376938E3,4.4450406E2,1.1798992E3,1.9945835E3,2.8199777E2,1.5810388E2,1.474314E3,7.011057E1,3.7367053E2,7.041693E2,2.1019406E2,6.843271E2,3.4568396E2,4.1157333E2,1.2731691E2,7.885158E1,1.039157E3,2.985369E2,1.9606487E2,2.484392E2,1.0739116E3,1.0598759E2,9.122535E1,1.9033582E3,2.3001506E2,5.19827E1,1.0439846E2,5.3705418E1,3.0828333E2,1.1660306E3,2.7554218E2,9.812837E1,5.293978E1,6.512295E2,6.362406E1,1.4657E2,2.6209506E2,8.35889E1,3.1041202E2,1.01161316E2,6.71638E1,6.0153107E1,1.04501465E2,9.3465546E2,4.768162E1,2.5085527E2,7.897828E1,1.17086586E2,6.767024E1,1.8076895E2,1.1814847E2,9.557631E2,5.2671516E1,5.331607E1,2.7138513E2,1.631973E3,1.7221428E2,5.7800777E1,2.5258873E2,5.56946E1,2.4464694E2,9.2138367E2,5.2811768E1,4.531661E1,5.390207E2,1.1220884E2,5.1306847E1,2.1078822E2,5.1485043E1,5.3016422E1,1.6422113E2,7.704343E2,6.2068226E1,5.501836E1,8.556308E2,1.0013229E2,2.1449655E2,5.6888588E1,1.2681614E3,3.638117E2,1.9829218E2,5.4296555E1,6.179394E2,3.034443E2,5.312157E1,4.858991E2,5.9167824E1,1.0505331E2,6.1968646E2,1.5074786E2,7.9945404E2,5.6176796E1,7.2465857E2,5.435028E2,4.439657E1,3.1941513E2,1.4776797E2,5.05242E1,5.685909E2,4.9348534E1,5.3806538E1,2.4963776E2],"tree_param":{"num_deleted":"0","num_feature":"59","num_nodes":"119","size_leaf_vector":"1"}},{"base_weights":[2.3127651E-4,1.3628161E-1,-1.934019E-1,2.3963235E-1,7.002057E-2,-1.0830068E-1,-3.345648E-1,2.0277157E-1,3.5057902E-1,5.5344608E-2,2.9331636E-1,-5.6652263E-2,-1.8220837E-1,-3.0237243E-1,-4.9226516E-1,1.0384972E-1,2.3713906E-1,2.682572E-1,5.128527E-1,2.5058458E-2,1.2278027E-1,3.674688E-1,1.9662527E-4,-7.824684E-2,5.7790354E-3,-2.5279927E-1,-1.4143799E-3,-4.7697294E-1,-2.8147706E-1,-7.5560533E-3,-4.4518225E-3,3.251702E-2,6.773346E-3,2.8147456E-1,1.3196674E-1,3.4851426E-1,2.0615715E-3,5.48221E-3,8.718202E-3,-1.5214327E-2,8.766173E-2,7.887899E-2,2.4478552E-1,3.610053E-3,7.739668E-3,2.761355E-2,-1.0525897E-1,-5.4155886E-3,-2.0403092E-1,-4.181305E-3,-7.981478E-3,-3.1788462E-1,-2.2047205E-1,1.2373167E-1,-1.1629269E-1,7.424834E-3,2.6320335E-1,5.7093788E-2,5.186443E-3,7.740696E-3,4.1593076E-3,3.0726295E-2,-7.120486E-2,1.3246831E-1,2.3933999E-5,5.4839314E-3,5.802154E-2,1.6708687E-1,6.7224503E-3,-2.756452E-2,2.335661E-3,-1.2620738E-1,6.651133E-2,-1.6278836E-1,-5.438007E-3,-7.2614374E-3,-4.240495E-3,-1.4726201E-3,-3.6988321E-3,1.1550176E-4,3.0402427E-3,4.772582E-4,-3.0988317E-3,2.2339115E-1,5.2283253E-3,3.5885482E-3,-3.8365122E-2,4.1636974E-3,1.1969716E-2,-2.039299E-1,-3.7277497E-2,3.7697712E-3,9.473894E-2,1.1789534E-1,-1.7739223E-2,2.4704875E-1,-7.529945E-4,-3.455535E-3,4.3690825E-4,-2.7597612E-2,-1.7612351E-1,-1.4407244E-3,2.526901E-3,-3.8409274E-4,-2.3412518E-1,8.40377E-4,3.4997917E-3,-1.8819825E-3,2.9965122E-3,-9.174756E-5,3.1697669E-3,-1.2663733E-3,-5.6808414E-3,1.779767E-4,-2.115389E-3,1.7024532E-3,-1.5935194E-3,2.384423E-3,-1.2278077E-3,-3.626124E-3,3.962319E-4,5.7233647E-3,1.9465222E-3,-1.0905343E-3,2.436638E-3,-3.5592793E-3,-1.2740287E-3,-4.784764E-3,-1.5844656E-3],"categories":[],"categories_nodes":[],"categories_segments":[],"categories_sizes":[],"default_left":[0,0,0,0,0,0,0,0,0,0,0,0,0,0,0,0,0,0,0,0,0,0,0,0,0,0,0,0,0,0,0,0,0,0,0,0,0,0,0,0,0,0,0,0,0,0,0,0,0,0,0,0,0,0,0,0,0,0,0,0,0,0,0,0,0,0,0,0,0,0,0,0,0,0,0,0,0,0,0,0,0,0,0,0,0,0,0,0,0,0,0,0,0,0,0,0,0,0,0,0,0,0,0,0,0,0,0,0,0,0,0,0,0,0,0,0,0,0,0,0,0,0,0,0,0,0,0,0,0],"id":2,"left_children":[1,3,5,7,9,11,13,15,17,19,21,23,25,27,29,31,33,35,37,39,41,43,-1,45,-1,47,-1,49,51,-1,-1,53,-1,55,57,59,-1,-1,-1,61,63,65,67,-1,-1,69,71,-1,73,-1,-1,75,77,79,81,-1,83,85,-1,-1,-1,87,89,91,-1,-1,93,95,-1,97,-1,99,101,103,-1,-1,-1,-1,-1,-1,-1,-1,-1,105,-1,-1,107,-1,109,111,113,-1,115,117,119,121,-1,-1,-1,123,125,-1,-1,-1,127,-1,-1,-1,-1,-1,-1,-1,-1,-1,-1,-1,-1,-1,-1,-1,-1,-1,-1,-1,-1,-1,-1,-1,-1],"loss_changes":[2.6425702E2,4.034472E1,4.9726288E1,9.409866E0,1.176297E1,9.857176E0,7.9001617E0,5.8718185E0,7.663368E0,6.8792067E0,4.583624E0,1.5348836E1,6.1202736E0,4.7135925E0,2.0836258E0,1.2002754E1,5.9764786E0,3.7158966E0,2.539444E0,5.8612757E0,5.5900507E0,3.5395088E0,0E0,4.1557226E0,0E0,3.6723251E0,0E0,2.2439404E0,2.5622864E0,0E0,0E0,5.086716E0,0E0,4.057907E0,6.7403436E0,2.4397144E0,0E0,0E0,0E0,3.6388204E0,3.5045643E0,4.978944E0,5.0022926E0,0E0,0E0,2.257509E0,4.166354E0,0E0,3.1329384E0,0E0,0E0,2.3434143E0,2.1238632E0,2.4804008E0,2.2267964E0,0E0,3.6264267E0,5.4640303E0,0E0,0E0,0E0,3.8654187E0,2.8699472E0,3.058445E0,0E0,0E0,3.2642448E0,3.6564798E0,0E0,2.7022386E0,0E0,5.0785275E0,2.4062202E0,3.2807837E0,0E0,0E0,0E0,0E0,0E0,0E0,0E0,0E0,0E0,2.5590172E0,0E0,0E0,4.678603E0,0E0,2.8653367E0,2.9536452E0,2.8696027E0,0E0,2.5625E0,4.2605677E0,3.5021522E0,2.6399155E0,0E0,0E0,0E0,3.479224E0,4.5083675E0,0E0,0E0,0E0,2.8644075E0,0E0,0E0,0E0,0E0,0E0,0E0,0E0,0E0,0E0,0E0,0E0,0E0,0E0,0E0,0E0,0E0,0E0,0E0,0E0,0E0,0E0,0E0,0E0,0E0],"parents":[2147483647,0,0,1,1,2,2,3,3,4,4,5,5,6,6,7,7,8,8,9,9,10,10,11,11,12,12,13,13,14,14,15,15,16,16,17,17,18,18,19,19,20,20,21,21,23,23,25,25,27,27,28,28,31,31,33,33,34,34,35,35,39,39,40,40,41,41,42,42,45,45,46,46,48,48,51,51,52,52,53,53,54,54,56,56,57,57,61,61,62,62,63,63,66,66,67,67,69,69,71,71,72,72,73,73,83,83,86,86,88,88,89,89,90,90,92,92,93,93,94,94,95,95,99,99,100,100,104,104],"right_children":[2,4,6,8,10,12,14,16,18,20,22,24,26,28,30,32,34,36,38,40,42,44,-1,46,-1,48,-1,50,52,-1,-1,54,-1,56,58,60,-1,-1,-1,62,64,66,68,-1,-1,70,72,-1,74,-1,-1,76,78,80,82,-1,84,86,-1,-1,-1,88,90,92,-1,-1,94,96,-1,98,-1,100,102,104,-1,-1,-1,-1,-1,-1,-1,-1,-1,106,-1,-1,108,-1,110,112,114,-1,116,118,120,122,-1,-1,-1,124,126,-1,-1,-1,128,-1,-1,-1,-1,-1,-1,-1,-1,-1,-1,-1,-1,-1,-1,-1,-1,-1,-1,-1,-1,-1,-1,-1,-1],"split_conditions":[2E1,8.5E0,5.1E1,1.163E1,2E1,3.1E1,1.17E2,9E0,1.353125E0,7.272222E-1,8.181818E-1,2.7E1,1.4E1,1E1,1.72777E-1,1.61E0,1.034E1,7.186E2,7.358036E-1,1.3E1,1.07767E0,9.4938226E-2,1.9662527E-4,1.7E1,5.7790354E-3,1.765E1,-1.4143799E-3,2.7777779E1,1E0,-7.5560533E-3,-4.4518225E-3,3.4782608E1,6.773346E-3,3.8E0,9.9332E1,2.1428572E1,2.0615715E-3,5.48221E-3,8.718202E-3,1.4E1,1.6E1,6.666667E-2,8.12146E-1,3.610053E-3,7.739668E-3,3E1,6.111111E1,-5.4155886E-3,3.333E1,-4.181305E-3,-7.981478E-3,-5.6935186E0,4.5E-1,8.507487E-2,1.3E3,7.424834E-3,1E0,5.5E0,5.186443E-3,7.740696E-3,4.1593076E-3,1.2E3,9.775E1,2.7272728E-1,2.3933999E-5,5.4839314E-3,1.4E1,1.1275E2,6.7224503E-3,1.1E1,2.335661E-3,6.25E0,2.68E1,7.14E0,-5.438007E-3,-7.2614374E-3,-4.240495E-3,-1.4726201E-3,-3.6988321E-3,1.1550176E-4,3.0402427E-3,4.772582E-4,-3.0988317E-3,1E1,5.2283253E-3,3.5885482E-3,1.4E1,4.1636974E-3,9.87504E1,2.883E1,1E0,3.7697712E-3,1.0102232E-1,1.814368E0,1E1,9.09E0,-7.529945E-4,-3.455535E-3,4.3690825E-4,9.09E0,1.3E1,-1.4407244E-3,2.526901E-3,-3.8409274E-4,7.55535E-1,8.40377E-4,3.4997917E-3,-1.8819825E-3,2.9965122E-3,-9.174756E-5,3.1697669E-3,-1.2663733E-3,-5.6808414E-3,1.779767E-4,-2.115389E-3,1.7024532E-3,-1.5935194E-3,2.384423E-3,-1.2278077E-3,-3.626124E-3,3.962319E-4,5.7233647E-3,1.9465222E-3,-1.0905343E-3,2.436638E-3,-3.5592793E-3,-1.2740287E-3,-4.784764E-3,-1.5844656E-3],"split_indices":[46,46,46,40,38,46,46,33,51,51,50,46,33,33,52,42,37,54,4,33,52,57,0,3,0,39,0,11,7,0,0,11,0,46,55,11,0,0,0,46,46,6,4,0,0,39,11,0,39,0,0,51,6,58,20,0,41,46,0,0,0,20,2,50,0,0,46,2,0,33,0,37,36,37,0,0,0,0,0,0,0,0,0,36,0,0,33,0,55,39,43,0,57,16,33,37,0,0,0,35,33,0,0,0,52,0,0,0,0,0,0,0,0,0,0,0,0,0,0,0,0,0,0,0,0,0,0,0,0],"split_type":[0,0,0,0,0,0,0,0,0,0,0,0,0,0,0,0,0,0,0,0,0,0,0,0,0,0,0,0,0,0,0,0,0,0,0,0,0,0,0,0,0,0,0,0,0,0,0,0,0,0,0,0,0,0,0,0,0,0,0,0,0,0,0,0,0,0,0,0,0,0,0,0,0,0,0,0,0,0,0,0,0,0,0,0,0,0,0,0,0,0,0,0,0,0,0,0,0,0,0,0,0,0,0,0,0,0,0,0,0,0,0,0,0,0,0,0,0,0,0,0,0,0,0,0,0,0,0,0,0],"sum_hessian":[1.0031077E4,5.8915723E3,4.139505E3,2.3015906E3,3.5899817E3,2.5825986E3,1.5569065E3,1.7276442E3,5.7394635E2,3.3686042E3,2.2137752E2,1.5202666E3,1.0623319E3,1.2929907E3,2.6391574E2,4.454943E2,1.2821498E3,3.8079703E2,1.931493E2,2.324649E3,1.0439552E3,1.7492456E2,4.6452957E1,1.4531647E3,6.7102E1,5.69675E2,4.9265698E2,1.3817502E2,1.1548157E3,2.1006425E2,5.3851498E1,3.747473E2,7.0746994E1,9.0190485E2,3.80245E2,2.294197E2,1.5137735E2,8.989733E1,1.03251976E2,1.4145739E3,9.1007513E2,7.677387E2,2.7621652E2,1.089553E2,6.596926E1,2.9538257E2,1.1577821E3,1.5341959E2,4.162554E2,4.632772E1,9.18473E1,7.231582E2,4.316575E2,2.3235512E2,1.4239218E2,6.2224243E1,8.396806E2,2.889218E2,9.132317E1,4.7510822E1,1.8190887E2,7.7697437E2,6.375995E2,5.982045E2,3.1187064E2,4.822868E1,7.195101E2,2.0720697E2,6.900956E1,2.1119026E2,8.41923E1,1.031957E3,1.2582504E2,3.3959937E2,7.665603E1,5.50422E1,6.68116E2,1.1603104E2,3.1562646E2,1.0331416E2,1.2904097E2,5.8249004E1,8.414318E1,6.144139E2,2.252667E2,9.397513E1,1.9494669E2,5.1280045E1,7.2569434E2,1.2977443E2,5.0782507E2,1.3019482E2,4.6800967E2,4.0192914E2,3.1758093E2,1.5210298E2,5.510399E1,4.475514E1,1.6643512E2,3.4684967E2,6.8510736E2,5.0454834E1,7.537021E1,1.1716249E2,2.2243687E2,8.2773285E1,5.316406E2,1.4131621E2,5.363048E1,6.678046E2,5.788974E1,8.270784E1,4.7066586E1,3.5230045E2,1.5552464E2,4.1547742E2,5.253226E1,3.2112015E2,8.0808975E1,5.099792E1,2.66583E2,6.1510773E1,9.05922E1,2.777956E2,6.9054085E1,3.6058157E2,3.2452582E2,1.1870164E2,1.0373523E2],"tree_param":{"num_deleted":"0","num_feature":"59","num_nodes":"129","size_leaf_vector":"1"}},{"base_weights":[1.0688696E-3,1.24200195E-1,-1.748145E-1,2.3205906E-1,7.5619705E-2,-1.19403355E-1,-3.6227205E-1,2.0188515E-1,3.498746E-1,6.097802E-2,2.409536E-1,-5.0955668E-2,-1.824892E-1,-3.3669737E-1,-7.371694E-3,3.104425E-1,1.5577912E-1,4.316536E-3,8.689369E-3,-2.3198826E-2,9.024894E-2,1.8460084E-1,6.4392877E-3,-7.045394E-2,5.079934E-3,-2.9495573E-1,-1.4727192E-1,-7.746198E-3,-4.4201766E-3,2.3000184E-1,5.4888166E-3,-1.0369692E-3,1.7914085E-1,-1.7614624E-1,4.6427855E-3,1.21544234E-1,2.3066333E-2,5.183281E-3,1.4003213E-1,-8.796801E-2,9.5538795E-2,-1.8041013E-1,-3.6884657E-1,-4.806984E-3,-1.324293E-1,1.5901466E-1,6.524285E-3,1.5905077E-2,2.0218904E-1,-3.00707E-1,1.5123953E-3,-4.9764812E-2,1.8037531E-1,1.0487662E-1,2.2319077E-1,-1.7808668E-2,2.2872584E-3,2.3469615E-1,-4.0888855E-5,-2.0877044E-1,-5.9225794E-2,3.3830316E-3,-1.5955467E-3,-1.0399808E-3,-5.4731024E-3,-6.1881845E-3,-1.8319744E-3,-1.1247836E-1,-3.17873E-3,2.67456E-1,-1.077573E-3,-2.2914975E-3,2.2347695E-3,1.5979277E-1,2.9746947E-1,-1.7107867E-3,-6.7066993E-3,-7.5991176E-2,3.0222724E-3,3.0987996E-1,-1.5250363E-3,1.1411198E-1,-2.1926446E-3,-4.5797642E-4,3.997047E-3,-3.6611117E-3,-6.1533065E-4,5.737021E-3,1.7937806E-3,-5.343903E-3,-1.3930161E-1,-4.411918E-2,-3.6878902E-3,-4.222374E-3,-9.6339926E-2,5.4801563E-3,1.3933245E-3,2.658239E-3,-9.606854E-4,3.1710458E-3,6.919539E-3,-5.785461E-4,-3.5621556E-3,6.4776405E-3,1.7407165E-3,1.4995454E-3,4.8562824E-3,5.170872E-4,-1.5635384E-3,-8.2193984E-4,-4.8973095E-3,-1.0580942E-3,1.0323862E-3,-1.5367913E-3,1.326158E-3],"categories":[],"categories_nodes":[],"categories_segments":[],"categories_sizes":[],"default_left":[0,0,0,0,0,0,0,0,0,0,0,0,0,0,0,0,0,0,0,0,0,0,0,0,0,0,0,0,0,0,0,0,0,0,0,0,0,0,0,0,0,0,0,0,0,0,0,0,0,0,0,0,0,0,0,0,0,0,0,0,0,0,0,0,0,0,0,0,0,0,0,0,0,0,0,0,0,0,0,0,0,0,0,0,0,0,0,0,0,0,0,0,0,0,0,0,0,0,0,0,0,0,0,0,0,0,0,0,0,0,0,0,0,0,0],"id":3,"left_children":[1,3,5,7,9,11,13,15,17,19,21,23,25,27,-1,29,31,-1,-1,33,35,37,-1,39,-1,41,43,-1,-1,45,-1,-1,47,49,51,53,55,-1,57,59,61,63,65,-1,67,69,-1,71,73,75,-1,77,79,81,83,85,-1,87,-1,89,91,-1,-1,-1,-1,-1,-1,93,-1,95,-1,-1,-1,97,99,-1,-1,101,-1,103,-1,105,-1,-1,-1,-1,107,-1,-1,-1,109,111,-1,-1,113,-1,-1,-1,-1,-1,-1,-1,-1,-1,-1,-1,-1,-1,-1,-1,-1,-1,-1,-1,-1],"loss_changes":[2.131772E2,3.0337364E1,4.2101562E1,6.3891373E0,9.662321E0,1.3508606E1,3.825035E0,7.162285E0,4.213852E0,9.036305E0,3.9665833E0,1.20583515E1,6.44619E0,3.8249664E0,0E0,2.7376633E0,5.387825E0,0E0,0E0,4.0298896E0,5.720476E0,2.1112032E0,0E0,4.165473E0,0E0,3.2830048E0,3.5777073E0,0E0,0E0,3.5270443E0,0E0,0E0,3.4299374E0,5.1507463E0,7.653677E0,3.1434174E0,4.934423E0,0E0,2.8093877E0,4.4989214E0,4.1443887E0,3.3815088E0,4.0039253E0,0E0,2.1495857E0,4.1688347E0,0E0,2.8863516E0,3.2257233E0,3.1923065E0,0E0,4.2416925E0,7.0795283E0,3.8409882E0,4.0822372E0,2.7877853E0,0E0,2.315373E0,0E0,2.9600477E0,3.20949E0,0E0,0E0,0E0,0E0,0E0,0E0,2.8755999E0,0E0,2.2967267E0,0E0,0E0,0E0,3.6875439E0,3.4423733E0,0E0,0E0,3.4349132E0,0E0,3.6625977E0,0E0,2.6631203E0,0E0,0E0,0E0,0E0,2.582057E0,0E0,0E0,0E0,2.9916086E0,3.5641747E0,0E0,0E0,2.1567087E0,0E0,0E0,0E0,0E0,0E0,0E0,0E0,0E0,0E0,0E0,0E0,0E0,0E0,0E0,0E0,0E0,0E0,0E0,0E0,0E0],"parents":[2147483647,0,0,1,1,2,2,3,3,4,4,5,5,6,6,7,7,8,8,9,9,10,10,11,11,12,12,13,13,15,15,16,16,19,19,20,20,21,21,23,23,25,25,26,26,29,29,32,32,33,33,34,34,35,35,36,36,38,38,39,39,40,40,41,41,42,42,44,44,45,45,47,47,48,48,49,49,51,51,52,52,53,53,54,54,55,55,57,57,59,59,60,60,67,67,69,69,73,73,74,74,77,77,79,79,81,81,86,86,90,90,91,91,94,94],"right_children":[2,4,6,8,10,12,14,16,18,20,22,24,26,28,-1,30,32,-1,-1,34,36,38,-1,40,-1,42,44,-1,-1,46,-1,-1,48,50,52,54,56,-1,58,60,62,64,66,-1,68,70,-1,72,74,76,-1,78,80,82,84,86,-1,88,-1,90,92,-1,-1,-1,-1,-1,-1,94,-1,96,-1,-1,-1,98,100,-1,-1,102,-1,104,-1,106,-1,-1,-1,-1,108,-1,-1,-1,110,112,-1,-1,114,-1,-1,-1,-1,-1,-1,-1,-1,-1,-1,-1,-1,-1,-1,-1,-1,-1,-1,-1,-1],"split_conditions":[2E1,7.5E0,7.1E1,4.8E-1,2.174E1,3.1E1,2.01E2,4.8E0,5.8075E0,1E1,2E0,2.7E1,1.1E1,1E1,-7.371694E-3,1E1,-2.7777779E1,4.316536E-3,8.689369E-3,-4.8E-1,1.6E1,8.9505E2,6.4392877E-3,1.628E1,5.079934E-3,2.9411764E1,1.1764706E-1,-7.746198E-3,-4.4201766E-3,1.37903E0,5.4888166E-3,-1.0369692E-3,8.238372E-2,8E-1,9.87504E1,7.272727E1,7.618636E-1,5.183281E-3,6.088917E-1,1E1,1.216E1,1.15E0,1.113E1,-4.806984E-3,8.947368E-1,1.0625E2,6.524285E-3,5.6699E1,7.172797E-1,3.1E-1,1.5123953E-3,3.529E1,7.9E-1,4.5714287E1,1.765E1,-6.2084374E0,2.2872584E-3,2E0,-4.0888855E-5,5.77E0,1.429E1,3.3830316E-3,-1.5955467E-3,-1.0399808E-3,-5.4731024E-3,-6.1881845E-3,-1.8319744E-3,-6.576354E0,-3.17873E-3,5E0,-1.077573E-3,-2.2914975E-3,2.2347695E-3,1.8E3,1.2666667E0,-1.7107867E-3,-6.7066993E-3,5E0,3.0222724E-3,4.53592E-1,-1.5250363E-3,4.117647E1,-2.1926446E-3,-4.5797642E-4,3.997047E-3,-3.6611117E-3,1E0,5.737021E-3,1.7937806E-3,-5.343903E-3,1.02E2,3.187E1,-3.6878902E-3,-4.222374E-3,1.123E2,5.4801563E-3,1.3933245E-3,2.658239E-3,-9.606854E-4,3.1710458E-3,6.919539E-3,-5.785461E-4,-3.5621556E-3,6.4776405E-3,1.7407165E-3,1.4995454E-3,4.8562824E-3,5.170872E-4,-1.5635384E-3,-8.2193984E-4,-4.8973095E-3,-1.0580942E-3,1.0323862E-3,-1.5367913E-3,1.326158E-3],"split_indices":[46,46,46,42,40,46,46,46,51,33,23,46,33,33,0,33,29,0,0,42,46,54,0,40,0,11,50,0,0,52,0,0,57,6,55,11,4,0,4,33,37,6,35,0,50,2,0,15,4,6,0,39,6,53,39,51,0,14,0,35,37,0,0,0,0,0,0,51,0,14,0,0,0,20,5,0,0,12,0,16,0,28,0,0,0,0,43,0,0,0,3,36,0,0,2,0,0,0,0,0,0,0,0,0,0,0,0,0,0,0,0,0,0,0,0],"split_type":[0,0,0,0,0,0,0,0,0,0,0,0,0,0,0,0,0,0,0,0,0,0,0,0,0,0,0,0,0,0,0,0,0,0,0,0,0,0,0,0,0,0,0,0,0,0,0,0,0,0,0,0,0,0,0,0,0,0,0,0,0,0,0,0,0,0,0,0,0,0,0,0,0,0,0,0,0,0,0,0,0,0,0,0,0,0,0,0,0,0,0,0,0,0,0,0,0,0,0,0,0,0,0,0,0,0,0,0,0,0,0,0,0,0,0],"sum_hessian":[9.843463E3,5.7900376E3,4.0534253E3,1.7980004E3,3.992037E3,3.1286453E3,9.247801E2,1.4314347E3,3.6656567E2,3.667297E3,3.247401E2,1.5005913E3,1.6280538E3,7.986542E2,1.2612593E2,4.266874E2,1.0047473E3,3.1595972E2,5.0605965E1,9.4616516E2,2.7211318E3,2.5779266E2,6.694744E1,1.432822E3,6.77693E1,3.8819943E2,1.2398545E3,7.5598495E1,7.2305566E2,2.1258733E2,2.141001E2,9.280337E1,9.11944E2,1.457368E2,8.0042834E2,1.8563342E3,8.647977E2,5.0253433E1,2.0753923E2,1.2960986E3,1.3672345E2,1.5224886E2,2.3595058E2,8.7868164E1,1.1519863E3,1.6310942E2,4.9477898E1,1.1285736E2,7.990866E2,1.0128292E2,4.4453884E1,6.1117737E2,1.8925095E2,1.5948625E3,2.6147174E2,6.688775E2,1.959202E2,1.24873634E2,8.2665596E1,2.4907536E2,1.0470232E3,8.072946E1,5.599398E1,1.0084549E2,5.1403366E1,1.8171848E2,5.4232094E1,9.496245E2,2.0236179E2,1.1171726E2,5.1392166E1,5.01292E1,6.272816E1,5.530504E2,2.4603615E2,5.024548E1,5.1037445E1,5.560919E2,5.5085487E1,1.3067377E2,5.857717E1,1.540333E3,5.452953E1,5.035579E1,2.1111597E2,4.426161E1,6.246159E2,4.7700783E1,7.717285E1,7.187003E1,1.7720534E2,9.7452875E2,7.249449E1,7.513797E1,8.744866E2,6.4714836E1,4.700242E1,4.90257E2,6.279346E1,1.7960623E2,6.642992E1,4.647605E2,9.13314E1,7.218519E1,5.8488586E1,1.4920555E3,4.8277443E1,4.6675266E2,1.5786325E2,1.2777831E2,4.9427017E1,7.7054913E2,2.039796E2,8.189403E2,5.554622E1],"tree_param":{"num_deleted":"0","num_feature":"59","num_nodes":"115","size_leaf_vector":"1"}},{"base_weights":[6.400481E-4,8.188868E-2,-2.3504235E-1,1.9695637E-1,3.1665374E-2,-1.7651153E-1,-3.5581896E-1,1.6419005E-1,2.993625E-1,6.0002536E-2,-6.3019894E-2,-2.773695E-1,-1.449326E-1,-3.3198974E-1,-7.068292E-3,6.272712E-2,2.0120573E-1,2.2836877E-1,4.4378084E-1,4.014686E-2,2.0901802E-1,2.9628908E-2,-1.1621324E-1,-2.4538183E-1,-7.2334795E-3,-2.9265696E-1,-1.8706676E-3,-4.1633472E-1,-2.849744E-1,2.2397249E-3,5.689078E-3,2.4237731E-1,1.0424084E-1,8.422721E-4,2.7396485E-1,4.343462E-3,7.992517E-3,8.365871E-2,5.5564713E-5,1.5467103E-1,3.8536528E-1,-5.8577605E-2,1.5421714E-1,-3.2977173E-3,-5.538771E-2,-4.8731295E-3,-1.5067743E-1,-6.3835257E-3,-1.5376558E-3,-4.6548262E-1,-2.6623441E-3,-3.1521898E-3,-5.282435E-3,7.616478E-2,-1.8386369E-3,6.9688065E-3,2.265825E-1,4.231651E-2,4.4302484E-3,7.194369E-3,2.2972488E-1,6.707433E-2,4.446047E-3,-1.914656E-2,1.5461059E-1,5.059486E-3,1.1776454E-1,2.9861804E-3,7.5368183E-3,-2.4589184E-3,7.654441E-2,2.4145634E-1,-1.0147382E-3,-8.074105E-2,2.2604472E-3,-2.5102538E-1,6.23112E-4,-4.1689575E-3,-7.3912074E-3,1.3292953E-1,-1.6711926E-3,2.5538105E-1,1.6148934E-3,2.9626857E-3,-3.1563446E-2,1.5237893E-1,5.5973935E-3,1.0265967E-2,1.1892641E-1,-1.2142729E-1,1.4065406E-2,-1.0679422E-3,3.5692146E-3,2.524909E-3,-4.7673946E-4,-6.253915E-4,3.270847E-3,2.009911E-3,5.9928973E-3,-6.308012E-4,-3.4704953E-3,-5.6284335E-3,-1.6702977E-3,4.3060505E-3,7.734407E-4,1.1302714E-3,3.8461196E-3,-3.8801897E-3,5.9007976E-4,1.1663961E-4,4.200076E-3,3.8839292E-4,-3.2863007E-3,1.9945754E-4,2.1658554E-3,-4.0458655E-3,-1.1989259E-3,-2.9407407E-3,4.6141027E-4],"categories":[],"categories_nodes":[],"categories_segments":[],"categories_sizes":[],"default_left":[0,0,0,0,0,0,0,0,0,0,0,0,0,0,0,0,0,0,0,0,0,0,0,0,0,0,0,0,0,0,0,0,0,0,0,0,0,0,0,0,0,0,0,0,0,0,0,0,0,0,0,0,0,0,0,0,0,0,0,0,0,0,0,0,0,0,0,0,0,0,0,0,0,0,0,0,0,0,0,0,0,0,0,0,0,0,0,0,0,0,0,0,0,0,0,0,0,0,0,0,0,0,0,0,0,0,0,0,0,0,0,0,0,0,0,0,0,0,0],"id":4,"left_children":[1,3,5,7,9,11,13,15,17,19,21,23,25,27,-1,29,31,33,35,37,39,41,43,45,-1,47,-1,49,51,53,-1,55,57,-1,59,-1,-1,61,63,65,67,69,71,-1,73,-1,75,-1,-1,77,-1,-1,-1,79,-1,-1,81,83,-1,-1,85,87,-1,89,91,-1,93,-1,-1,-1,95,97,-1,99,-1,101,-1,-1,-1,103,-1,105,-1,-1,107,109,-1,111,113,115,117,-1,-1,-1,-1,-1,-1,-1,-1,-1,-1,-1,-1,-1,-1,-1,-1,-1,-1,-1,-1,-1,-1,-1,-1,-1,-1,-1,-1],"loss_changes":[1.8641199E2,4.18353E1,1.763945E1,7.378479E0,1.3521994E1,5.3519783E0,2.8452835E0,6.2574463E0,5.4631042E0,1.1475596E1,5.721222E0,3.0345058E0,2.2513847E0,2.7759018E0,0E0,9.20832E0,4.872677E0,2.7444115E0,2.9481506E0,5.970525E0,4.368078E0,4.6528697E0,5.304036E0,3.379858E0,0E0,2.8210945E0,0E0,2.7953186E0,2.4787025E0,3.720707E0,0E0,3.4233055E0,4.7486315E0,0E0,2.9533787E0,0E0,0E0,6.3265085E0,5.2877383E0,2.6365538E0,2.7944927E0,3.8941822E0,3.466835E0,0E0,2.6682546E0,0E0,3.5697536E0,0E0,0E0,2.0898476E0,0E0,0E0,0E0,2.6931267E0,0E0,0E0,2.594452E0,3.4998574E0,0E0,0E0,3.0843973E0,4.5122676E0,0E0,5.383278E0,4.5034204E0,0E0,2.7690263E0,0E0,0E0,0E0,2.1649923E0,2.302936E0,0E0,2.595981E0,0E0,2.373899E0,0E0,0E0,0E0,2.5429525E0,0E0,2.030468E0,0E0,0E0,3.513204E0,3.4235265E0,0E0,3.0937335E0,2.9421682E0,2.3345551E0,5.0027523E0,0E0,0E0,0E0,0E0,0E0,0E0,0E0,0E0,0E0,0E0,0E0,0E0,0E0,0E0,0E0,0E0,0E0,0E0,0E0,0E0,0E0,0E0,0E0,0E0,0E0,0E0,0E0,0E0],"parents":[2147483647,0,0,1,1,2,2,3,3,4,4,5,5,6,6,7,7,8,8,9,9,10,10,11,11,12,12,13,13,15,15,16,16,17,17,18,18,19,19,20,20,21,21,22,22,23,23,25,25,27,27,28,28,29,29,31,31,32,32,34,34,37,37,38,38,39,39,40,40,41,41,42,42,44,44,46,46,49,49,53,53,56,56,57,57,60,60,61,61,63,63,64,64,66,66,70,70,71,71,73,73,75,75,79,79,81,81,84,84,85,85,87,87,88,88,89,89,90,90],"right_children":[2,4,6,8,10,12,14,16,18,20,22,24,26,28,-1,30,32,34,36,38,40,42,44,46,-1,48,-1,50,52,54,-1,56,58,-1,60,-1,-1,62,64,66,68,70,72,-1,74,-1,76,-1,-1,78,-1,-1,-1,80,-1,-1,82,84,-1,-1,86,88,-1,90,92,-1,94,-1,-1,-1,96,98,-1,100,-1,102,-1,-1,-1,104,-1,106,-1,-1,108,110,-1,112,114,116,118,-1,-1,-1,-1,-1,-1,-1,-1,-1,-1,-1,-1,-1,-1,-1,-1,-1,-1,-1,-1,-1,-1,-1,-1,-1,-1,-1,-1],"split_conditions":[3.1E1,8.5E0,8.1E1,1.163E1,1E0,1.1E1,2.01E2,9E0,1.2045E0,1.765E1,1.4E1,1.5E1,-8.8E0,1.3E1,-7.068292E-3,1.61E0,1.034E1,-1.020582E0,7.358036E-1,1.6E1,2E0,1.1E1,1.1E1,7.69E0,-7.2334795E-3,2.631579E1,-1.8706676E-3,7.075872E-1,2.85E1,3.8095238E1,5.689078E-3,3.8E0,9.9332E1,8.422721E-4,4.2E0,4.343462E-3,7.992517E-3,4.211E1,8.4717196E-1,1.8181819E-1,4.5454544E1,1.1E1,9E0,-3.2977173E-3,1.29E1,-4.8731295E-3,1E1,-6.3835257E-3,-1.5376558E-3,9.4E-1,-2.6623441E-3,-3.1521898E-3,-5.282435E-3,3.571E1,-1.8386369E-3,6.9688065E-3,1E0,5.5E0,4.4302484E-3,7.194369E-3,9.4938226E-2,1.2E1,4.446047E-3,1.5384615E1,0E0,5.059486E-3,7.375E-1,2.9861804E-3,7.5368183E-3,-2.4589184E-3,2.963E1,3.1E1,-1.0147382E-3,1E0,2.2604472E-3,8.346088E-2,6.23112E-4,-4.1689575E-3,-7.3912074E-3,6.24E2,-1.6711926E-3,-1.15E0,1.6148934E-3,2.9626857E-3,2.778E1,4.5E-1,5.5973935E-3,1.8181818E1,9.3E1,2.2727273E-1,-5.495139E0,-1.0679422E-3,3.5692146E-3,2.524909E-3,-4.7673946E-4,-6.253915E-4,3.270847E-3,2.009911E-3,5.9928973E-3,-6.308012E-4,-3.4704953E-3,-5.6284335E-3,-1.6702977E-3,4.3060505E-3,7.734407E-4,1.1302714E-3,3.8461196E-3,-3.8801897E-3,5.9007976E-4,1.1663961E-4,4.200076E-3,3.8839292E-4,-3.2863007E-3,1.9945754E-4,2.1658554E-3,-4.0458655E-3,-1.1989259E-3,-2.9407407E-3,4.6141027E-4],"split_indices":[46,46,46,40,43,33,46,33,51,40,46,10,42,33,0,42,37,17,4,46,23,13,33,38,0,11,0,4,36,11,0,46,55,0,46,0,0,39,4,50,11,46,31,0,40,0,35,0,0,38,0,0,0,36,0,0,43,46,0,0,57,33,0,11,21,0,6,0,0,0,36,3,0,23,0,57,0,0,0,54,0,5,0,0,36,50,0,24,0,50,51,0,0,0,0,0,0,0,0,0,0,0,0,0,0,0,0,0,0,0,0,0,0,0,0,0,0,0,0],"split_type":[0,0,0,0,0,0,0,0,0,0,0,0,0,0,0,0,0,0,0,0,0,0,0,0,0,0,0,0,0,0,0,0,0,0,0,0,0,0,0,0,0,0,0,0,0,0,0,0,0,0,0,0,0,0,0,0,0,0,0,0,0,0,0,0,0,0,0,0,0,0,0,0,0,0,0,0,0,0,0,0,0,0,0,0,0,0,0,0,0,0,0,0,0,0,0,0,0,0,0,0,0,0,0,0,0,0,0,0,0,0,0,0,0,0,0,0,0,0,0],"sum_hessian":[9.73492E3,7.239285E3,2.4956348E3,2.1996116E3,5.0396733E3,1.6810189E3,8.146158E2,1.6664532E3,5.331583E2,3.8788674E3,1.1608063E3,4.0079407E2,1.2802249E3,7.0086884E2,1.1374699E2,4.4548212E2,1.2209712E3,3.5746692E2,1.7569138E2,3.4228232E3,4.56044E2,4.2335028E2,7.3745593E2,3.5314667E2,4.764741E1,9.5524956E1,1.1846998E3,2.5081201E2,4.500568E2,3.785129E2,6.6969215E1,8.5702545E2,3.639457E2,7.616046E1,2.8130646E2,8.434689E1,9.134449E1,1.6413326E3,1.7814907E3,3.4863013E2,1.0741388E2,2.4784265E2,1.7550764E2,2.5042268E2,4.8703326E2,1.7075429E2,1.8239238E2,5.0806774E1,4.471818E1,2.0615962E2,4.4652386E1,2.693461E2,1.807107E2,2.4329713E2,1.3521579E2,5.0313667E1,8.067118E2,2.813205E2,8.26252E1,4.413845E1,2.37168E2,1.5320635E3,1.0926911E2,1.584588E3,1.9690274E2,5.3148357E1,2.9548175E2,4.9991787E1,5.7422092E1,1.3323451E2,1.1460814E2,1.2670104E2,4.8806602E1,4.359178E2,5.1115463E1,1.2043569E2,6.195669E1,5.4081768E1,1.5207787E2,1.8846037E2,5.483676E1,6.413842E2,1.6532759E2,8.582239E1,1.9549812E2,1.6250754E2,7.466047E1,7.3113574E2,8.0092773E2,3.8844995E2,1.1961381E3,5.9214233E1,1.376885E2,2.0998543E2,8.549634E1,6.453021E1,5.0077927E1,8.263589E1,4.4065155E1,3.584677E2,7.7450096E1,5.6576496E1,6.3859196E1,5.845064E1,1.3000972E2,6.0153645E1,5.812305E2,4.5233734E1,1.5026439E2,8.188331E1,8.062423E1,6.826031E2,4.8532684E1,2.0098003E2,5.999477E2,6.939219E1,3.1905777E2,9.26584E1,1.1034796E3],"tree_param":{"num_deleted":"0","num_feature":"59","num_nodes":"119","size_leaf_vector":"1"}},{"base_weights":[-9.594252E-4,7.608541E-2,-2.2554979E-1,1.3641667E-1,-4.0747914E-3,-1.7124385E-1,-3.41907E-1,2.8881937E-1,1.153743E-1,2.545301E-2,-9.891758E-2,-2.2497052E-1,-1.6214364E-3,-3.1724477E-1,-6.9947457E-3,2.2329359E-1,3.8386157E-1,1.0398707E-1,3.0922896E-1,1.6021455E-2,5.470728E-3,-1.1910649E-1,2.9247135E-3,-2.4075142E-1,8.4097433E-4,-5.2250656E-3,-3.3935807E-3,1.3737704E-1,3.23816E-1,7.063108E-3,4.1247923E-3,8.511267E-2,1.881938E-1,3.9751306E-1,1.1548391E-3,4.2143002E-2,-8.702566E-2,-2.9545985E-3,-1.0277122E-3,-2.1817791E-1,-6.0062716E-3,3.9171052E-4,3.9387145E-3,3.196118E-3,7.088606E-3,1.03178514E-4,1.0741246E-1,1.6636276E-1,5.540153E-3,7.338525E-3,3.971147E-3,-9.217626E-2,6.373708E-2,-1.4073333E-1,1.18135184E-1,-2.556695E-1,-1.0308841E-1,-4.066447E-2,3.3002852E-3,9.249074E-2,2.633825E-1,1.1862753E-1,2.5084895E-1,-4.2647048E-4,-4.5816046E-3,3.471488E-2,1.5710965E-1,-3.0881166E-1,-1.0538535E-3,3.8395678E-3,-6.239457E-4,-9.673244E-4,-2.8790125E-1,-2.86677E-3,1.4693431E-4,-5.361206E-5,-4.9805897E-3,1.0930782E-3,3.1783427E-3,6.0314173E-3,2.4713986E-3,2.7028497E-3,2.8979353E-4,5.428876E-3,2.2193096E-3,2.2530237E-3,-4.8729464E-5,5.776724E-3,1.5266761E-3,-6.813271E-3,-1.9158069E-3,-3.1250613E-3,-5.575126E-3],"categories":[],"categories_nodes":[],"categories_segments":[],"categories_sizes":[],"default_left":[0,0,0,0,0,0,0,0,0,0,0,0,0,0,0,0,0,0,0,0,0,0,0,0,0,0,0,0,0,0,0,0,0,0,0,0,0,0,0,0,0,0,0,0,0,0,0,0,0,0,0,0,0,0,0,0,0,0,0,0,0,0,0,0,0,0,0,0,0,0,0,0,0,0,0,0,0,0,0,0,0,0,0,0,0,0,0,0,0,0,0,0,0],"id":5,"left_children":[1,3,5,7,9,11,13,15,17,19,21,23,-1,25,-1,27,29,31,33,35,-1,37,-1,39,-1,-1,-1,41,43,-1,-1,45,47,49,-1,51,53,-1,-1,55,-1,-1,-1,-1,-1,57,59,61,-1,-1,-1,63,65,67,69,71,73,75,-1,77,79,81,83,-1,-1,85,87,89,-1,-1,-1,-1,91,-1,-1,-1,-1,-1,-1,-1,-1,-1,-1,-1,-1,-1,-1,-1,-1,-1,-1,-1,-1],"loss_changes":[1.6672443E2,3.4696056E1,1.5548843E1,1.3125191E1,8.628033E0,5.042267E0,2.998581E0,3.0896301E0,7.9378433E0,8.053464E0,4.5314956E0,3.8474312E0,0E0,2.7837448E0,0E0,2.5365915E0,2.1682148E0,5.398136E0,3.998413E0,6.16363E0,0E0,2.8729744E0,0E0,3.4082146E0,0E0,0E0,0E0,2.4759302E0,2.353322E0,0E0,0E0,5.2605457E0,2.79113E0,2.05229E0,0E0,5.298663E0,5.102275E0,0E0,0E0,3.1196785E0,0E0,0E0,0E0,0E0,0E0,5.516513E0,5.114937E0,2.2661715E0,0E0,0E0,0E0,3.6536913E0,4.264058E0,4.056774E0,2.418583E0,3.2849274E0,2.0347505E0,5.674775E0,0E0,3.9541702E0,2.7811756E0,2.5902944E0,2.550416E0,0E0,0E0,5.753627E0,4.59311E0,3.1264324E0,0E0,0E0,0E0,0E0,3.3144226E0,0E0,0E0,0E0,0E0,0E0,0E0,0E0,0E0,0E0,0E0,0E0,0E0,0E0,0E0,0E0,0E0,0E0,0E0,0E0,0E0],"parents":[2147483647,0,0,1,1,2,2,3,3,4,4,5,5,6,6,7,7,8,8,9,9,10,10,11,11,13,13,15,15,16,16,17,17,18,18,19,19,21,21,23,23,27,27,28,28,31,31,32,32,33,33,35,35,36,36,39,39,45,45,46,46,47,47,51,51,52,52,53,53,54,54,55,55,56,56,57,57,59,59,60,60,61,61,62,62,65,65,66,66,67,67,72,72],"right_children":[2,4,6,8,10,12,14,16,18,20,22,24,-1,26,-1,28,30,32,34,36,-1,38,-1,40,-1,-1,-1,42,44,-1,-1,46,48,50,-1,52,54,-1,-1,56,-1,-1,-1,-1,-1,58,60,62,-1,-1,-1,64,66,68,70,72,74,76,-1,78,80,82,84,-1,-1,86,88,90,-1,-1,-1,-1,92,-1,-1,-1,-1,-1,-1,-1,-1,-1,-1,-1,-1,-1,-1,-1,-1,-1,-1,-1,-1],"split_conditions":[3.1E1,1.4E1,8.1E1,4.8E0,1E0,1.4E1,2.01E2,9.38718E-1,5.259E1,2.7E1,1.667E1,1.123E2,-1.6214364E-3,1.5E1,-6.9947457E-3,1E1,3.8E0,4.8E-1,1.414E1,2.6E1,5.470728E-3,1.1E1,2.9247135E-3,1.5E1,8.4097433E-4,-5.2250656E-3,-3.3935807E-3,8.511614E-2,3.1402522E-1,7.063108E-3,4.1247923E-3,9E0,1.34E1,2.414E1,1.1548391E-3,1.25E1,2.3629167E0,-2.9545985E-3,-1.0277122E-3,7.80234E-1,-6.0062716E-3,3.9171052E-4,3.9387145E-3,3.196118E-3,7.088606E-3,1.02588E2,3.8E0,9.846667E1,5.540153E-3,7.338525E-3,3.971147E-3,8.695652E0,1.243E1,1.1E1,4.7458334E0,4E-1,6E-1,7E0,3.3002852E-3,4.5454544E1,2.258E1,4E0,8.45E2,-4.2647048E-4,-4.5816046E-3,6.67E0,-2.3529411E1,5.217391E-1,-1.0538535E-3,3.8395678E-3,-6.239457E-4,-9.673244E-4,8.511614E-2,-2.86677E-3,1.4693431E-4,-5.361206E-5,-4.9805897E-3,1.0930782E-3,3.1783427E-3,6.0314173E-3,2.4713986E-3,2.7028497E-3,2.8979353E-4,5.428876E-3,2.2193096E-3,2.2530237E-3,-4.8729464E-5,5.776724E-3,1.5266761E-3,-6.813271E-3,-1.9158069E-3,-3.1250613E-3,-5.575126E-3],"split_indices":[46,46,46,46,43,33,46,52,39,46,38,2,0,33,0,33,46,42,42,46,0,33,0,10,0,0,0,58,17,0,0,33,35,40,0,36,51,0,0,52,0,0,0,0,0,55,5,1,0,0,0,10,38,33,51,6,6,12,0,10,39,12,54,0,0,35,29,50,0,0,0,0,58,0,0,0,0,0,0,0,0,0,0,0,0,0,0,0,0,0,0,0,0],"split_type":[0,0,0,0,0,0,0,0,0,0,0,0,0,0,0,0,0,0,0,0,0,0,0,0,0,0,0,0,0,0,0,0,0,0,0,0,0,0,0,0,0,0,0,0,0,0,0,0,0,0,0,0,0,0,0,0,0,0,0,0,0,0,0,0,0,0,0,0,0,0,0,0,0,0,0,0,0,0,0,0,0,0,0,0,0,0,0,0,0,0,0,0,0],"sum_hessian":[9.635243E3,7.174156E3,2.4610874E3,4.0933918E3,3.080764E3,1.6779845E3,7.8310284E2,4.9658286E2,3.596809E3,2.3492964E3,7.3146747E2,8.559461E2,8.2203845E2,6.759119E2,1.0719095E2,2.9396384E2,2.0261902E2,3.3972744E3,1.9953455E2,2.2899033E3,5.9392998E1,6.863318E2,4.513566E1,8.110194E2,4.4926716E1,3.9408908E2,2.818228E2,1.5852272E2,1.3544113E2,8.780032E1,1.1481869E2,2.7752725E3,6.220019E2,1.4366647E2,5.5868084E1,1.8268579E3,4.630455E2,2.3053311E2,4.5579868E2,7.2340845E2,8.761094E1,8.970415E1,6.881857E1,8.821256E1,4.722857E1,5.767708E2,2.1985017E3,5.6235645E2,5.9645447E1,6.906245E1,7.460402E1,2.529896E2,1.5738683E3,3.669958E2,9.6049706E1,5.4562384E2,1.7778465E2,4.913539E2,8.541689E1,2.0065641E3,1.919377E2,3.5936847E2,2.02988E2,2.000451E2,5.294449E1,1.200713E3,3.7315533E2,1.0322773E2,2.6376807E2,4.9192818E1,4.6856884E1,8.0282196E1,4.653416E2,9.421547E1,8.3569176E1,4.3968243E2,5.1671474E1,1.8067819E3,1.9978223E2,6.643853E1,1.25499176E2,2.0526826E2,1.5410019E2,8.27324E1,1.2025561E2,2.8012372E2,9.2058923E2,5.993507E1,3.1322025E2,5.114442E1,5.2083313E1,2.8991257E2,1.7542905E2],"tree_param":{"num_deleted":"0","num_feature":"59","num_nodes":"93","size_leaf_vector":"1"}},{"base_weights":[-9.062933E-4,7.056255E-2,-2.1384512E-1,1.7382656E-1,2.6476394E-2,-1.605711E-1,-3.3016595E-1,4.006263E-1,1.6012476E-1,5.4983642E-2,-4.3112878E-2,-5.991312E-3,-1.5090711E-1,-8.393018E-3,-3.0921656E-1,7.4372697E-3,3.6491735E-3,7.118593E-2,1.9165134E-1,4.517168E-2,2.1344575E-1,-5.78151E-2,4.2954087E-3,-1.6124961E-1,2.7174235E-4,-3.963709E-3,-6.638764E-3,2.3199832E-2,3.967732E-3,1.6279629E-1,2.853112E-1,-2.4182584E-2,6.824492E-2,4.7812248E-3,7.743458E-2,4.6429157E-2,-8.5221685E-2,-1.5350042E-1,-5.6245564E-3,-4.552765E-3,6.3689575E-2,1.3982351E-1,4.8489687E-3,2.3993985E-1,6.069056E-3,-5.0740533E-2,3.0359845E-3,3.581633E-3,5.9435934E-2,3.3348058E-3,-1.4903948E-3,-2.048379E-3,9.177496E-2,-1.10557616E-1,3.4954198E-2,-2.9469255E-1,-1.4173828E-1,1.3653616E-2,3.5764377E-3,-2.6759615E-3,2.2120376E-3,3.189129E-1,1.9236531E-3,-7.4676216E-2,1.3410512E-3,3.9767884E-2,1.328309E-1,4.3992563E-3,5.43135E-4,-1.2882058E-1,1.048223E-3,-1.4878814E-3,2.6860547E-3,-2.3222647E-3,-6.309962E-3,-5.5749226E-2,-1.6723914E-1,-1.9893632E-3,1.1658453E-3,2.0854778E-3,6.548774E-3,-3.6746894E-3,-6.6008256E-4,9.83473E-4,-2.1792857E-4,1.453497E-3,5.1876768E-3,-3.237556E-3,-1.385551E-3,-3.9104093E-3,-2.2879703E-4,-3.1279828E-3,-1.8394203E-3],"categories":[],"categories_nodes":[],"categories_segments":[],"categories_sizes":[],"default_left":[0,0,0,0,0,0,0,0,0,0,0,0,0,0,0,0,0,0,0,0,0,0,0,0,0,0,0,0,0,0,0,0,0,0,0,0,0,0,0,0,0,0,0,0,0,0,0,0,0,0,0,0,0,0,0,0,0,0,0,0,0,0,0,0,0,0,0,0,0,0,0,0,0,0,0,0,0,0,0,0,0,0,0,0,0,0,0,0,0,0,0,0,0],"id":6,"left_children":[1,3,5,7,9,11,13,15,17,19,21,-1,23,-1,25,-1,-1,27,29,31,33,35,-1,37,-1,-1,-1,39,-1,41,43,45,47,-1,49,51,53,55,-1,-1,57,59,-1,61,-1,63,-1,-1,65,-1,-1,-1,67,69,71,73,75,77,-1,-1,-1,79,-1,81,-1,83,85,-1,-1,87,-1,-1,-1,-1,-1,89,91,-1,-1,-1,-1,-1,-1,-1,-1,-1,-1,-1,-1,-1,-1,-1,-1],"loss_changes":[1.4537274E2,3.2558167E1,1.4872749E1,6.646744E0,9.9431305E0,4.2207985E0,4.2073364E0,2.2019272E0,5.656742E0,5.5271378E0,7.462468E0,0E0,2.7975845E0,0E0,3.1122437E0,0E0,0E0,5.344554E0,4.0239563E0,5.358321E0,3.565524E0,3.992989E0,0E0,2.7674828E0,0E0,0E0,0E0,6.0429254E0,0E0,4.759474E0,2.3245373E0,5.3279696E0,4.124775E0,0E0,2.9274015E0,2.5335395E0,3.3698854E0,2.4068718E0,0E0,0E0,3.6738243E0,5.830984E0,0E0,2.1792755E0,0E0,2.6316347E0,0E0,0E0,3.4624796E0,0E0,0E0,0E0,2.7636695E0,3.089922E0,4.231741E0,2.2219286E0,2.9351845E0,3.2780945E0,0E0,0E0,0E0,3.7939243E0,0E0,3.3461547E0,0E0,3.1544983E0,3.5254278E0,0E0,0E0,2.5541496E0,0E0,0E0,0E0,0E0,0E0,2.6870816E0,2.075138E0,0E0,0E0,0E0,0E0,0E0,0E0,0E0,0E0,0E0,0E0,0E0,0E0,0E0,0E0,0E0,0E0],"parents":[2147483647,0,0,1,1,2,2,3,3,4,4,5,5,6,6,7,7,8,8,9,9,10,10,12,12,14,14,17,17,18,18,19,19,20,20,21,21,23,23,27,27,29,29,30,30,31,31,32,32,34,34,35,35,36,36,37,37,40,40,41,41,43,43,45,45,48,48,52,52,53,53,54,54,55,55,56,56,57,57,61,61,63,63,65,65,66,66,69,69,75,75,76,76],"right_children":[2,4,6,8,10,12,14,16,18,20,22,-1,24,-1,26,-1,-1,28,30,32,34,36,-1,38,-1,-1,-1,40,-1,42,44,46,48,-1,50,52,54,56,-1,-1,58,60,-1,62,-1,64,-1,-1,66,-1,-1,-1,68,70,72,74,76,78,-1,-1,-1,80,-1,82,-1,84,86,-1,-1,88,-1,-1,-1,-1,-1,90,92,-1,-1,-1,-1,-1,-1,-1,-1,-1,-1,-1,-1,-1,-1,-1,-1],"split_conditions":[3.1E1,8.5E0,8.1E1,3.3E0,2E1,8E0,1E1,3.823148E-1,9E0,2E1,2.7E1,-5.991312E-3,1.123E2,-8.393018E-3,2.01E2,7.4372697E-3,3.6491735E-3,4.8E-1,9.932E1,1E1,7E0,1.7E1,4.2954087E-3,2.9166667E0,2.7174235E-4,-3.963709E-3,-6.638764E-3,-2.7777779E1,3.967732E-3,8.1818184E1,1.154E1,2.4444445E1,6.666667E-2,4.7812248E-3,7.894737E-1,-3.2355556E0,2.1795514E0,-7.77E0,-5.6245564E-3,-4.552765E-3,1.233E1,1.2E3,4.8489687E-3,1.0485E2,6.069056E-3,2E0,3.0359845E-3,3.581633E-3,8.33E0,3.3348058E-3,-1.4903948E-3,-2.048379E-3,9.43E1,6.111111E1,2.3E1,8.7E0,9.895E1,2.8E1,3.5764377E-3,-2.6759615E-3,2.2120376E-3,4.6666667E-1,1.9236531E-3,9.72E0,1.3410512E-3,1.6E1,3E0,4.3992563E-3,5.43135E-4,4E0,1.048223E-3,-1.4878814E-3,2.6860547E-3,-2.3222647E-3,-6.309962E-3,8.57E1,1.3E1,-1.9893632E-3,1.1658453E-3,2.0854778E-3,6.548774E-3,-3.6746894E-3,-6.6008256E-4,9.83473E-4,-2.1792857E-4,1.453497E-3,5.1876768E-3,-3.237556E-3,-1.385551E-3,-3.9104093E-3,-2.2879703E-4,-3.1279828E-3,-1.8394203E-3],"split_indices":[46,46,46,46,46,33,33,51,33,38,46,0,2,0,46,0,0,42,1,33,31,3,0,6,0,0,0,29,0,11,40,53,6,0,50,51,51,42,0,0,40,20,0,0,0,7,0,0,40,0,0,0,1,11,46,35,2,3,0,0,0,50,0,36,0,46,7,0,0,31,0,0,0,0,0,55,33,0,0,0,0,0,0,0,0,0,0,0,0,0,0,0,0],"split_type":[0,0,0,0,0,0,0,0,0,0,0,0,0,0,0,0,0,0,0,0,0,0,0,0,0,0,0,0,0,0,0,0,0,0,0,0,0,0,0,0,0,0,0,0,0,0,0,0,0,0,0,0,0,0,0,0,0,0,0,0,0,0,0,0,0,0,0,0,0,0,0,0,0,0,0,0,0,0,0,0,0,0,0,0,0,0,0,0,0,0,0,0,0],"sum_hessian":[9.552328E3,7.1519053E3,2.4004229E3,2.139768E3,5.012137E3,1.6464181E3,7.540049E2,1.218862E2,2.0178818E3,3.5556392E3,1.456498E3,5.7816055E1,1.588602E3,5.4909485E1,6.990954E2,6.3850796E1,5.80354E1,5.281332E2,1.4897487E3,3.3483408E3,2.0729837E2,1.3975607E3,5.893746E1,1.4976398E3,9.0962234E1,5.9852814E2,1.0056727E2,4.3027695E2,9.785625E1,1.1389183E3,3.508303E2,8.3581415E2,2.5125269E3,1.0737307E2,9.99253E1,2.9090213E2,1.1066586E3,1.4505676E3,4.707212E1,4.495601E1,3.8532095E2,1.0112942E3,1.2762413E2,2.6778305E2,8.304723E1,7.52577E2,8.323713E1,1.1333582E2,2.399191E3,5.343074E1,4.649456E1,5.553812E1,2.35364E2,9.1400494E2,1.9265356E2,1.1151663E2,1.339051E3,3.0522696E2,8.0093994E1,5.0809338E1,9.6048486E2,1.5164229E2,1.1614076E2,6.4666534E2,1.05911674E2,1.8921953E3,5.069957E2,4.5608814E1,1.8975519E2,8.3194415E2,8.2060814E1,1.0127286E2,9.1380714E1,6.0578384E1,5.0938248E1,3.0632208E2,1.032729E3,9.4184204E1,2.1104276E2,7.0133354E1,8.150894E1,8.366129E1,5.63004E2,1.2241364E3,6.6805896E2,4.5072968E2,5.6266E1,1.91372E2,6.4057214E2,4.6177914E1,2.6014417E2,4.107128E2,6.220162E2],"tree_param":{"num_deleted":"0","num_feature":"59","num_nodes":"93","size_leaf_vector":"1"}},{"base_weights":[-1.6683419E-3,6.6829085E-2,-2.0597169E-1,1.8330823E-1,3.0006507E-2,-1.555823E-1,-3.1642324E-1,1.11225136E-1,2.1374041E-1,5.6956477E-2,-4.2709313E-2,-5.6833043E-3,-1.4622864E-1,-7.864833E-3,-2.97885E-1,7.7679336E-2,4.568707E-3,7.3977364E-3,1.9939719E-1,4.5354437E-2,1.9420701E-1,-5.5856403E-2,3.747873E-3,-1.0870046E-3,-1.6744146E-1,-3.832817E-3,-6.435874E-3,1.15970835E-1,-3.015233E-3,1.6510016E-1,2.7030268E-1,3.289291E-2,1.6648151E-1,1.3512436E-1,6.058634E-3,-9.918516E-2,8.774486E-3,-1.586891E-1,-5.3014173E-3,4.0075243E-3,8.028073E-2,1.3214031E-1,2.7730763E-1,5.426235E-3,1.8790218E-1,-4.0214263E-2,5.7943806E-2,1.6952302E-2,2.6256204E-1,8.064557E-2,4.5338166E-3,-3.9862134E-3,-7.940186E-2,6.379455E-2,-1.514548E-3,-1.2239618E-1,-2.1059142E-1,-1.1142149E-3,1.3150544E-1,1.5689453E-1,-7.796393E-4,8.7075715E-4,5.1385355E-3,9.3204255E-4,4.2663002E-3,-2.0726082E-4,-1.8524233E-1,5.1581707E-2,4.192965E-3,2.0392651E-3,-2.2998848E-3,3.4723508E-1,1.8256847E-3,3.089511E-3,-2.1156903E-4,-4.1506924E-2,-1.5012427E-1,2.8872425E-2,4.541545E-3,-2.2103418E-1,-1.1861824E-3,-3.3813578E-3,-8.0318045E-4,1.1477016E-3,4.2309617E-3,1.6527101E-3,4.056781E-3,-4.3938568E-4,2.2917131E-3,-1.6310812E-3,-5.3484477E-3,1.1035135E-3,9.719283E-5,3.3227424E-3,7.77326E-3,-8.6933945E-4,2.260482E-3,-1.1824911E-5,-2.8818287E-3,-1.806708E-3,1.3554348E-3,-2.2547035E-3,-5.898434E-3],"categories":[],"categories_nodes":[],"categories_segments":[],"categories_sizes":[],"default_left":[0,0,0,0,0,0,0,0,0,0,0,0,0,0,0,0,0,0,0,0,0,0,0,0,0,0,0,0,0,0,0,0,0,0,0,0,0,0,0,0,0,0,0,0,0,0,0,0,0,0,0,0,0,0,0,0,0,0,0,0,0,0,0,0,0,0,0,0,0,0,0,0,0,0,0,0,0,0,0,0,0,0,0,0,0,0,0,0,0,0,0,0,0,0,0,0,0,0,0,0,0,0,0],"id":7,"left_children":[1,3,5,7,9,11,13,15,17,19,21,-1,23,-1,25,27,-1,-1,29,31,33,35,-1,-1,37,-1,-1,39,-1,41,43,45,47,49,-1,51,53,55,-1,-1,57,59,61,-1,63,65,67,69,71,73,-1,-1,75,77,-1,79,81,-1,83,85,-1,-1,-1,-1,-1,87,89,91,-1,-1,-1,93,-1,-1,-1,95,97,99,-1,101,-1,-1,-1,-1,-1,-1,-1,-1,-1,-1,-1,-1,-1,-1,-1,-1,-1,-1,-1,-1,-1,-1,-1],"loss_changes":[1.3303654E2,3.0534828E1,1.3282715E1,3.7496452E0,1.0600871E1,3.8080788E0,3.361946E0,3.6364818E0,5.3821297E0,6.2835884E0,5.945051E0,0E0,2.3089294E0,0E0,2.8095207E0,4.907234E0,0E0,0E0,2.79348E0,5.492084E0,4.2970896E0,3.9294791E0,0E0,0E0,2.2126465E0,0E0,0E0,2.3381371E0,0E0,2.8636723E0,3.564806E0,6.0432043E0,4.8752537E0,2.50915E0,0E0,3.0602436E0,3.607917E0,2.182644E0,0E0,0E0,2.6176507E0,2.7816525E0,3.334817E0,0E0,3.0702457E0,4.884922E0,3.7540998E0,3.0693154E0,2.3201761E0,2.538099E0,0E0,0E0,2.0320497E0,3.4592147E0,0E0,2.5599213E0,2.1841087E0,0E0,2.0471115E0,2.739377E0,0E0,0E0,0E0,0E0,0E0,3.3417315E0,2.457096E0,2.8750815E0,0E0,0E0,0E0,2.8724575E0,0E0,0E0,0E0,2.0283852E0,2.1634269E0,3.5797634E0,0E0,2.28481E0,0E0,0E0,0E0,0E0,0E0,0E0,0E0,0E0,0E0,0E0,0E0,0E0,0E0,0E0,0E0,0E0,0E0,0E0,0E0,0E0,0E0,0E0,0E0],"parents":[2147483647,0,0,1,1,2,2,3,3,4,4,5,5,6,6,7,7,8,8,9,9,10,10,12,12,14,14,15,15,18,18,19,19,20,20,21,21,24,24,27,27,29,29,30,30,31,31,32,32,33,33,35,35,36,36,37,37,40,40,41,41,42,42,44,44,45,45,46,46,47,47,48,48,49,49,52,52,53,53,55,55,56,56,58,58,59,59,65,65,66,66,67,67,71,71,75,75,76,76,77,77,79,79],"right_children":[2,4,6,8,10,12,14,16,18,20,22,-1,24,-1,26,28,-1,-1,30,32,34,36,-1,-1,38,-1,-1,40,-1,42,44,46,48,50,-1,52,54,56,-1,-1,58,60,62,-1,64,66,68,70,72,74,-1,-1,76,78,-1,80,82,-1,84,86,-1,-1,-1,-1,-1,88,90,92,-1,-1,-1,94,-1,-1,-1,96,98,100,-1,102,-1,-1,-1,-1,-1,-1,-1,-1,-1,-1,-1,-1,-1,-1,-1,-1,-1,-1,-1,-1,-1,-1,-1],"split_conditions":[3.1E1,7.5E0,8.1E1,9E0,2E1,8E0,1E1,9.25E-1,3.3E0,2.174E1,2.7E1,-5.6833043E-3,0E0,-7.864833E-3,2.01E2,1.1145E2,4.568707E-3,7.3977364E-3,1.1411805E0,3.846154E1,2E0,6.4282775E-1,3.747873E-3,-1.0870046E-3,2.2857143E1,-3.832817E-3,-6.435874E-3,2.2E-1,-3.015233E-3,3E0,5.5E0,1E1,7.272727E1,3.333E1,6.058634E-3,-4.8665833E0,7.647059E-1,5.1E1,-5.3014173E-3,4.0075243E-3,-8.423851E-1,9.87E1,-4.1235638E-1,5.426235E-3,7.004648E-1,6.80388E-1,2.08375E0,9.429734E-2,8E0,2.558E1,4.5338166E-3,-3.9862134E-3,1E0,4.167E1,-1.514548E-3,1.765E1,5E0,-1.1142149E-3,9.38E0,1.4E1,-7.796393E-4,8.7075715E-4,5.1385355E-3,9.3204255E-4,4.2663002E-3,2E0,1.5E1,1.5E1,4.192965E-3,2.0392651E-3,-2.2998848E-3,7.5625E-1,1.8256847E-3,3.089511E-3,-2.1156903E-4,1.622E1,4.1666666E-1,1.1E1,4.541545E-3,3.043E1,-1.1861824E-3,-3.3813578E-3,-8.0318045E-4,1.1477016E-3,4.2309617E-3,1.6527101E-3,4.056781E-3,-4.3938568E-4,2.2917131E-3,-1.6310812E-3,-5.3484477E-3,1.1035135E-3,9.719283E-5,3.3227424E-3,7.77326E-3,-8.6933945E-4,2.260482E-3,-1.1824911E-5,-2.8818287E-3,-1.806708E-3,1.3554348E-3,-2.2547035E-3,-5.898434E-3],"split_indices":[46,46,46,33,46,33,33,6,46,40,46,0,16,0,46,2,0,0,51,10,23,4,0,0,53,0,0,6,0,8,46,33,11,40,0,51,50,46,0,0,17,0,17,0,4,17,52,57,31,40,0,0,43,36,0,39,12,0,40,33,0,0,0,0,0,7,10,46,0,0,0,52,0,0,0,40,50,33,0,36,0,0,0,0,0,0,0,0,0,0,0,0,0,0,0,0,0,0,0,0,0,0,0],"split_type":[0,0,0,0,0,0,0,0,0,0,0,0,0,0,0,0,0,0,0,0,0,0,0,0,0,0,0,0,0,0,0,0,0,0,0,0,0,0,0,0,0,0,0,0,0,0,0,0,0,0,0,0,0,0,0,0,0,0,0,0,0,0,0,0,0,0,0,0,0,0,0,0,0,0,0,0,0,0,0,0,0,0,0,0,0,0,0,0,0,0,0,0,0,0,0,0,0,0,0,0,0,0,0],"sum_hessian":[9.506464E3,7.1194727E3,2.3869917E3,1.7100425E3,5.40943E3,1.6392081E3,7.4778357E2,5.0768207E2,1.2023605E3,3.9467502E3,1.4626797E3,5.9434456E1,1.5797737E3,5.3022034E1,6.9476154E2,4.3880402E2,6.887806E1,5.2783764E1,1.1495767E3,3.6391606E3,3.0758963E2,1.4030402E3,5.9639492E1,3.717917E2,1.207982E3,5.996517E2,9.5109825E1,3.8795984E2,5.0844166E1,7.7484985E2,3.7472684E2,3.2997256E3,3.3943503E2,2.4614478E2,6.1444843E1,8.399859E2,5.6305426E2,1.1595674E3,4.8414623E1,6.762449E1,3.2033536E2,5.989557E2,1.7589415E2,1.5597064E2,2.1875618E2,8.4207275E2,2.4576528E3,1.3280396E2,2.0663106E2,1.9069328E2,5.5451485E1,8.141756E1,7.5856836E2,3.8243396E2,1.806203E2,6.824528E2,4.7711456E2,7.7843445E1,2.4249191E2,5.2915076E2,6.9804924E1,5.1066677E1,1.2482748E2,1.0655351E2,1.1220266E2,6.6003186E2,1.8204092E2,2.3942583E3,6.339456E1,7.770263E1,5.5101334E1,1.2613608E2,8.049498E1,7.775858E1,1.1293471E2,4.939601E2,2.6460825E2,3.370335E2,4.540044E1,1.8994168E2,4.9251114E2,3.9941226E2,7.770229E1,1.8732634E2,5.516557E1,4.0729462E2,1.2185614E2,5.545737E2,1.05458084E2,1.343598E2,4.768112E1,1.4946034E3,8.9965497E2,8.192254E1,4.421354E1,4.4890543E2,4.505468E1,7.1069405E1,1.9353883E2,1.01168274E2,2.3586525E2,1.4545435E2,4.4487335E1],"tree_param":{"num_deleted":"0","num_feature":"59","num_nodes":"103","size_leaf_vector":"1"}},{"base_weights":[1.991262E-3,6.697475E-2,-1.9265646E-1,1.6306359E-1,2.6516324E-2,-1.5300778E-1,-3.1150496E-1,2.605746E-1,1.3532537E-1,5.0367426E-2,-5.438411E-2,-5.7379864E-3,-1.4434622E-1,-3.9323112E-1,-3.537861E-3,1.8861738E-1,4.7152773E-3,5.729152E-2,1.6187061E-1,3.437573E-2,1.7300498E-1,3.8023782E-3,-1.06609255E-1,-3.8326886E-2,-1.5845664E-1,-6.3944226E-3,-2.7828298E-3,9.6482046E-2,3.129388E-1,7.256298E-3,2.0837757E-1,1.7647786E-1,2.899186E-5,6.016193E-2,-2.9726801E-2,2.886057E-1,1.06584325E-1,7.813984E-2,-5.3701576E-2,2.333678E-3,-1.2913008E-1,3.1792495E-4,-3.4154914E-3,-1.7226104E-3,-2.8325634E-3,3.0558778E-3,-1.2839173E-3,2.1593692E-3,6.381063E-3,1.1225539E-1,-1.6794124E-1,7.9429196E-4,5.6348015E-3,1.3019994E-1,2.289509E-1,1.0375795E-2,1.0185033E-1,5.6514177E-2,-5.919948E-2,2.428099E-3,7.490956E-3,2.6301926E-3,-8.140897E-5,4.4877147E-3,6.280542E-3,-1.544064E-1,2.0402196E-4,-5.083097E-3,-1.0346336E-1,-2.5237168E-3,2.1536201E-1,-4.0934156E-3,3.0001943E-4,-1.1551965E-3,1.5076432E-1,1.8568967E-1,5.51672E-3,-8.366779E-3,2.931792E-3,1.8151115E-1,7.740933E-2,4.0725996E-3,3.755728E-3,-3.6905876E-3,-4.5239244E-2,-1.294895E-3,2.1685648E-3,-4.4861753E-3,-2.0355782E-4,2.3499087E-3,-1.3234285E-1,5.7253367E-3,9.0131536E-4,1.5515446E-3,3.8453199E-3,5.2892505E-3,2.0417783E-3,-1.8620016E-3,3.1335713E-4,1.7507029E-3,5.2437354E-3,-1.0321827E-3,1.2837719E-3,-2.3456747E-3,1.1503354E-3,-9.682712E-4,1.8978128E-3,-2.3046003E-3,1.770499E-3],"categories":[],"categories_nodes":[],"categories_segments":[],"categories_sizes":[],"default_left":[0,0,0,0,0,0,0,0,0,0,0,0,0,0,0,0,0,0,0,0,0,0,0,0,0,0,0,0,0,0,0,0,0,0,0,0,0,0,0,0,0,0,0,0,0,0,0,0,0,0,0,0,0,0,0,0,0,0,0,0,0,0,0,0,0,0,0,0,0,0,0,0,0,0,0,0,0,0,0,0,0,0,0,0,0,0,0,0,0,0,0,0,0,0,0,0,0,0,0,0,0,0,0,0,0,0,0,0,0],"id":8,"left_children":[1,3,5,7,9,11,13,15,17,19,21,-1,23,25,-1,27,-1,29,31,33,35,37,39,41,43,-1,-1,45,47,49,51,53,-1,55,57,59,61,63,65,-1,67,-1,-1,-1,-1,-1,-1,-1,-1,69,71,-1,-1,73,75,77,79,81,83,-1,-1,-1,-1,-1,85,87,-1,-1,89,-1,91,-1,-1,-1,93,95,-1,97,-1,99,101,-1,103,-1,105,-1,-1,-1,-1,-1,107,-1,-1,-1,-1,-1,-1,-1,-1,-1,-1,-1,-1,-1,-1,-1,-1,-1,-1],"loss_changes":[1.1905488E2,2.7432035E1,1.1098755E1,5.6531944E0,9.58169E0,3.8990593E0,2.8835258E0,2.4866028E0,3.3707829E0,7.5203705E0,3.4362032E0,0E0,2.5549355E0,2.989746E0,0E0,2.6998901E0,0E0,3.1227956E0,2.8343735E0,5.608238E0,3.3947105E0,2.2859726E0,3.6573105E0,2.5027025E0,2.328083E0,0E0,0E0,3.0745246E0,2.2498245E0,5.7106028E0,2.9998803E0,2.7005577E0,0E0,5.0212135E0,2.4736943E0,4.5638027E0,2.5406787E0,4.037648E0,2.071475E0,0E0,3.2796736E0,0E0,0E0,0E0,0E0,0E0,0E0,0E0,0E0,5.839046E0,2.7121105E0,0E0,0E0,2.5826283E0,3.6816006E0,4.0951777E0,2.5625572E0,3.0461926E0,2.0564702E0,0E0,0E0,0E0,0E0,0E0,2.6147265E0,2.8028352E0,0E0,0E0,3.872764E0,0E0,4.1585107E0,0E0,0E0,0E0,2.6726398E0,3.1772585E0,0E0,3.8300982E0,0E0,3.3705807E0,2.1086888E0,0E0,2.6896553E0,0E0,2.8875012E0,0E0,0E0,0E0,0E0,0E0,3.6469007E0,0E0,0E0,0E0,0E0,0E0,0E0,0E0,0E0,0E0,0E0,0E0,0E0,0E0,0E0,0E0,0E0,0E0,0E0],"parents":[2147483647,0,0,1,1,2,2,3,3,4,4,5,5,6,6,7,7,8,8,9,9,10,10,12,12,13,13,15,15,17,17,18,18,19,19,20,20,21,21,22,22,23,23,24,24,27,27,28,28,29,29,30,30,31,31,33,33,34,34,35,35,36,36,37,37,38,38,40,40,49,49,50,50,53,53,54,54,55,55,56,56,57,57,58,58,64,64,65,65,68,68,70,70,74,74,75,75,77,77,79,79,80,80,82,82,84,84,90,90],"right_children":[2,4,6,8,10,12,14,16,18,20,22,-1,24,26,-1,28,-1,30,32,34,36,38,40,42,44,-1,-1,46,48,50,52,54,-1,56,58,60,62,64,66,-1,68,-1,-1,-1,-1,-1,-1,-1,-1,70,72,-1,-1,74,76,78,80,82,84,-1,-1,-1,-1,-1,86,88,-1,-1,90,-1,92,-1,-1,-1,94,96,-1,98,-1,100,102,-1,104,-1,106,-1,-1,-1,-1,-1,108,-1,-1,-1,-1,-1,-1,-1,-1,-1,-1,-1,-1,-1,-1,-1,-1,-1,-1],"split_conditions":[3.1E1,8.5E0,9.1E1,4.8E0,1E0,8E0,1.4E1,1E1,9E0,1.765E1,1.6E1,-5.7379864E-3,2.8E-1,6.228764E-1,-3.537861E-3,1.167E1,4.7152773E-3,1.132E1,1E0,2E1,9.09E0,5.5E-1,5E0,2.9411764E1,5.1E1,-6.3944226E-3,-2.7828298E-3,2.963E1,5.3333336E-1,8.7E0,7.186E2,2.936E1,2.899186E-5,1.2E1,1.7E1,6E0,9.429734E-2,-9.8965526E-1,1.1E1,2.333678E-3,-1E2,3.1792495E-4,-3.4154914E-3,-1.7226104E-3,-2.8325634E-3,3.0558778E-3,-1.2839173E-3,2.1593692E-3,6.381063E-3,-1.3E-1,1.1E1,7.9429196E-4,5.6348015E-3,-2.7777779E1,8.036139E-1,3.846154E1,2.7272728E-1,0E0,1.25E-1,2.428099E-3,7.490956E-3,2.6301926E-3,-8.140897E-5,4.4877147E-3,5.715259E1,5.6699E1,2.0402196E-4,-5.083097E-3,3.1E-1,-2.5237168E-3,5.715259E1,-4.0934156E-3,3.0001943E-4,-1.1551965E-3,9.560527E-2,5.248375E2,5.51672E-3,2E0,2.931792E-3,8.002851E-1,-2E2,4.0725996E-3,7.84E0,-3.6905876E-3,6.111111E1,-1.294895E-3,2.1685648E-3,-4.4861753E-3,-2.0355782E-4,2.3499087E-3,1.414E1,5.7253367E-3,9.0131536E-4,1.5515446E-3,3.8453199E-3,5.2892505E-3,2.0417783E-3,-1.8620016E-3,3.1335713E-4,1.7507029E-3,5.2437354E-3,-1.0321827E-3,1.2837719E-3,-2.3456747E-3,1.1503354E-3,-9.682712E-4,1.8978128E-3,-2.3046003E-3,1.770499E-3],"split_indices":[46,46,46,46,43,33,33,33,33,40,46,0,6,4,0,38,0,35,44,46,37,50,39,10,46,0,0,36,6,35,54,39,0,33,3,12,57,17,46,0,21,0,0,0,0,0,0,0,0,51,13,0,0,29,4,10,50,14,6,0,0,0,0,0,15,15,0,0,6,0,15,0,0,0,57,54,0,37,0,4,21,0,40,0,11,0,0,0,0,0,38,0,0,0,0,0,0,0,0,0,0,0,0,0,0,0,0,0,0],"split_type":[0,0,0,0,0,0,0,0,0,0,0,0,0,0,0,0,0,0,0,0,0,0,0,0,0,0,0,0,0,0,0,0,0,0,0,0,0,0,0,0,0,0,0,0,0,0,0,0,0,0,0,0,0,0,0,0,0,0,0,0,0,0,0,0,0,0,0,0,0,0,0,0,0,0,0,0,0,0,0,0,0,0,0,0,0,0,0,0,0,0,0,0,0,0,0,0,0,0,0,0,0,0,0,0,0,0,0,0,0],"sum_hessian":[9.412328E3,7.0565215E3,2.3558074E3,2.0907844E3,4.965737E3,1.7665237E3,5.892836E2,4.62995E2,1.6277896E3,3.8351238E3,1.1306129E3,5.8013226E1,1.7085105E3,2.4929369E2,3.3998996E2,2.3588112E2,2.2711389E2,4.1322714E2,1.2145624E3,3.392755E3,4.4236893E2,5.347405E2,5.958724E2,2.0072156E2,1.507789E3,1.8961743E2,5.9676258E1,1.3550017E2,1.00380936E2,3.1044806E2,1.0277908E2,1.1128158E3,1.0174662E2,2.4195361E3,9.732188E2,1.6139636E2,2.8097256E2,2.3326923E2,3.0147125E2,4.546264E1,5.504097E2,1.5463174E2,4.6089817E1,8.207296E2,6.8705927E2,8.2467995E1,5.3032177E1,4.7097664E1,5.3283276E1,1.9413007E2,1.1631799E2,5.7435097E1,4.5343983E1,5.9136304E2,5.214527E2,1.102727E3,1.3168091E3,2.4784035E2,7.253785E2,1.0942666E2,5.1969692E1,1.6377814E2,1.1719444E2,5.356871E1,1.7970052E2,1.21765594E2,1.7970567E2,5.4742203E1,4.956675E2,5.0685062E1,1.43445E2,7.048875E1,4.5829247E1,5.2193268E1,5.391698E2,4.1227896E2,1.0917375E2,1.0073891E3,9.533791E1,3.0911353E2,1.00769556E3,4.5728745E1,2.021116E2,4.6603252E1,6.787752E2,1.07912865E2,7.178766E1,5.5936813E1,6.582878E1,4.778886E1,4.4787866E2,6.324521E1,8.01998E1,4.0552042E2,1.3364935E2,7.229713E1,3.399818E2,1.9963385E2,8.0775525E2,2.3816481E2,7.094872E1,8.487669E1,9.228189E2,6.3430237E1,1.3868137E2,6.001582E2,7.8617E1,3.9916122E2,4.871743E1],"tree_param":{"num_deleted":"0","num_feature":"59","num_nodes":"109","size_leaf_vector":"1"}},{"base_weights":[-2.021553E-3,6.1825935E-2,-1.9230443E-1,1.499711E-1,2.5010886E-2,-1.4554703E-1,-2.9634067E-1,1.2179927E-1,2.4153952E-1,1.6399464E-2,1.972306E-1,-2.1632294E-1,-1.1219662E-1,-2.7051798E-1,-6.560556E-3,1.522853E-1,5.0123848E-2,1.7509234E-1,3.8290638E-1,4.155921E-2,-4.384927E-2,2.7631527E-1,-2.5161172E-4,-2.6078814E-1,-9.4191177E-4,-4.0228036E-3,-9.996279E-2,-7.219468E-3,-3.54801E-3,5.1600233E-2,1.9155483E-1,2.594552E-3,-1.5073913E-2,5.671213E-3,1.3808288E-1,3.2816012E-3,7.01516E-3,5.884854E-2,-2.0405127E-2,-5.3011786E-2,2.8350144E-3,2.2230896E-3,5.771651E-3,-2.9527944E-1,-1.2489058E-3,-7.656219E-2,-2.1928096E-1,-7.1218396E-3,4.990069E-3,1.4752176E-1,2.6815772E-1,-7.010326E-2,2.7845171E-3,1.8099222E-1,-1.3172873E-3,2.179113E-2,9.003716E-2,-2.874166E-3,1.8975428E-5,-6.502491E-2,1.8596365E-3,-3.2146394E-3,-5.76084E-3,1.9208757E-2,-1.0673755E-1,-1.4577354E-1,-5.9013395E-3,-6.469353E-2,2.7869423E-3,1.6902792E-1,-8.332272E-4,3.2017243E-3,6.9201826E-3,-3.8387221E-3,-9.548795E-3,2.8984106E-4,2.4581906E-1,4.000129E-5,1.6559482E-1,1.728288E-1,6.413117E-2,-1.5653762E-1,-4.2154107E-2,2.6221804E-3,-5.7253597E-4,-4.7294744E-3,-1.2634322E-3,-1.4657759E-4,-4.0796413E-3,3.204527E-4,-3.3361483E-3,1.4576274E-3,3.3989174E-3,-2.0478603E-3,2.10364E-3,1.6791981E-3,6.3058985E-3,2.1279376E-4,-3.4362574E-3,3.4074922E-4,5.689707E-3,1.6983588E-3,5.023915E-3,7.4945844E-4,3.410711E-3,-5.558E-3,-1.3697156E-3,9.779899E-4,-1.0122885E-3],"categories":[],"categories_nodes":[],"categories_segments":[],"categories_sizes":[],"default_left":[0,0,0,0,0,0,0,0,0,0,0,0,0,0,0,0,0,0,0,0,0,0,0,0,0,0,0,0,0,0,0,0,0,0,0,0,0,0,0,0,0,0,0,0,0,0,0,0,0,0,0,0,0,0,0,0,0,0,0,0,0,0,0,0,0,0,0,0,0,0,0,0,0,0,0,0,0,0,0,0,0,0,0,0,0,0,0,0,0,0,0,0,0,0,0,0,0,0,0,0,0,0,0,0,0,0,0,0,0],"id":9,"left_children":[1,3,5,7,9,11,13,15,17,19,21,23,25,27,-1,29,31,33,35,37,39,41,-1,43,-1,-1,45,-1,-1,47,49,-1,51,-1,53,-1,-1,55,57,59,-1,-1,-1,61,-1,63,65,67,-1,69,71,73,-1,75,-1,77,79,-1,-1,81,-1,-1,-1,83,85,87,-1,89,-1,91,-1,-1,-1,-1,93,-1,95,97,99,101,103,105,107,-1,-1,-1,-1,-1,-1,-1,-1,-1,-1,-1,-1,-1,-1,-1,-1,-1,-1,-1,-1,-1,-1,-1,-1,-1,-1],"loss_changes":[1.1384221E2,2.276706E1,1.1449905E1,5.330433E0,7.3388157E0,3.8323479E0,3.2038193E0,3.4530983E0,4.565096E0,7.144882E0,4.0104637E0,3.452835E0,2.3463717E0,2.8021088E0,0E0,4.3835907E0,4.133604E0,2.790927E0,2.6916847E0,3.5623689E0,3.1216574E0,2.7293959E0,0E0,2.3757534E0,0E0,0E0,2.8786974E0,0E0,0E0,5.5430064E0,2.6889553E0,0E0,3.7234223E0,0E0,2.8312068E0,0E0,0E0,3.0041485E0,2.9037163E0,2.9783235E0,0E0,0E0,0E0,2.5431347E0,0E0,2.4927678E0,2.487524E0,3.0805752E0,0E0,2.2534132E0,2.6364384E0,3.099519E0,0E0,2.4961925E0,0E0,3.7156193E0,3.0263968E0,0E0,0E0,2.6299143E0,0E0,0E0,0E0,2.0710154E0,2.5421333E0,2.4153318E0,0E0,3.0742588E0,0E0,2.1783876E0,0E0,0E0,0E0,0E0,4.209782E0,0E0,4.3774376E0,3.805179E0,5.2706985E0,3.2272015E0,2.0776901E0,3.5447645E0,3.3505383E0,0E0,0E0,0E0,0E0,0E0,0E0,0E0,0E0,0E0,0E0,0E0,0E0,0E0,0E0,0E0,0E0,0E0,0E0,0E0,0E0,0E0,0E0,0E0,0E0,0E0,0E0],"parents":[2147483647,0,0,1,1,2,2,3,3,4,4,5,5,6,6,7,7,8,8,9,9,10,10,11,11,12,12,13,13,15,15,16,16,17,17,18,18,19,19,20,20,21,21,23,23,26,26,29,29,30,30,32,32,34,34,37,37,38,38,39,39,43,43,45,45,46,46,47,47,49,49,50,50,51,51,53,53,55,55,56,56,59,59,63,63,64,64,65,65,67,67,69,69,74,74,76,76,77,77,78,78,79,79,80,80,81,81,82,82],"right_children":[2,4,6,8,10,12,14,16,18,20,22,24,26,28,-1,30,32,34,36,38,40,42,-1,44,-1,-1,46,-1,-1,48,50,-1,52,-1,54,-1,-1,56,58,60,-1,-1,-1,62,-1,64,66,68,-1,70,72,74,-1,76,-1,78,80,-1,-1,82,-1,-1,-1,84,86,88,-1,90,-1,92,-1,-1,-1,-1,94,-1,96,98,100,102,104,106,108,-1,-1,-1,-1,-1,-1,-1,-1,-1,-1,-1,-1,-1,-1,-1,-1,-1,-1,-1,-1,-1,-1,-1,-1,-1,-1],"split_conditions":[3.1E1,8.5E0,8.1E1,1.163E1,5.116E1,1.2E1,2.01E2,1.034E1,1.2045E0,2E1,1E1,7.80234E-1,1.1764706E-1,1E1,-6.560556E-3,9E0,5.5E0,2.1428572E1,7.004648E-1,1E0,2.7E1,3.4782608E1,-2.5161172E-4,1.2861309E0,-9.4191177E-4,-4.0228036E-3,8.947368E-1,-7.219468E-3,-3.54801E-3,9.8E-1,1E0,2.594552E-3,9.92352E1,5.671213E-3,5.8513367E1,3.2816012E-3,7.01516E-3,1.2E1,8E0,1.1924471E-1,2.8350144E-3,2.2230896E-3,5.771651E-3,8.511614E-2,-1.2489058E-3,-4.53592E-1,1.6E3,8.4210527E-1,4.990069E-3,1.2136E0,9E1,2.778E1,2.7845171E-3,-9.979024E-1,-1.3172873E-3,3E1,2.7272728E-1,-2.874166E-3,1.8975428E-5,1E1,1.8596365E-3,-3.2146394E-3,-5.76084E-3,5.1383144E-1,-6.2084374E0,8.33E0,-5.9013395E-3,1E0,2.7869423E-3,7.512E2,-8.332272E-4,3.2017243E-3,6.9201826E-3,-3.8387221E-3,1.25E1,2.8984106E-4,4.0909092E1,1.6666666E1,9.97E1,8.002851E-1,1.2E1,1.765E1,1.7E1,2.6221804E-3,-5.7253597E-4,-4.7294744E-3,-1.2634322E-3,-1.4657759E-4,-4.0796413E-3,3.204527E-4,-3.3361483E-3,1.4576274E-3,3.3989174E-3,-2.0478603E-3,2.10364E-3,1.6791981E-3,6.3058985E-3,2.1279376E-4,-3.4362574E-3,3.4074922E-4,5.689707E-3,1.6983588E-3,5.023915E-3,7.4945844E-4,3.410711E-3,-5.558E-3,-1.3697156E-3,9.779899E-4,-1.0122885E-3],"split_indices":[46,46,46,40,39,33,46,37,51,46,31,52,50,33,0,33,46,11,4,43,46,11,0,51,0,0,50,0,0,42,49,0,55,0,15,0,0,33,33,58,0,0,0,58,0,16,20,50,0,52,11,36,0,17,0,10,50,0,0,33,0,0,0,4,51,35,0,23,0,54,0,0,0,0,37,0,11,24,0,4,12,39,3,0,0,0,0,0,0,0,0,0,0,0,0,0,0,0,0,0,0,0,0,0,0,0,0,0,0],"split_type":[0,0,0,0,0,0,0,0,0,0,0,0,0,0,0,0,0,0,0,0,0,0,0,0,0,0,0,0,0,0,0,0,0,0,0,0,0,0,0,0,0,0,0,0,0,0,0,0,0,0,0,0,0,0,0,0,0,0,0,0,0,0,0,0,0,0,0,0,0,0,0,0,0,0,0,0,0,0,0,0,0,0,0,0,0,0,0,0,0,0,0,0,0,0,0,0,0,0,0,0,0,0,0,0,0,0,0,0,0],"sum_hessian":[9.370384E3,7.0161577E3,2.354226E3,2.0670208E3,4.949137E3,1.6242705E3,7.2995544E2,1.5807439E3,4.8627673E2,4.7134795E3,2.3565776E2,5.201878E2,1.1040828E3,6.33801E2,9.615444E1,1.1089861E3,4.7175775E2,3.3081628E2,1.5546045E2,3.3250332E3,1.3884463E3,1.723279E2,6.3329853E1,4.0081885E2,1.1936894E2,7.255954E1,1.0315232E3,4.4240166E1,5.8956085E2,3.1120255E2,7.9778357E2,1.5414792E2,3.1760983E2,4.6151787E1,2.8466452E2,6.789814E1,8.756232E1,2.5997322E3,7.2530084E2,1.3384983E3,4.994807E1,9.159554E1,8.073236E1,3.3383887E2,6.6979996E1,8.6242554E2,1.6909767E2,2.607002E2,5.050236E1,5.0662656E2,2.9115704E2,2.5243669E2,6.517315E1,2.4020992E2,4.445459E1,1.1881556E3,1.4115765E3,7.672172E1,6.4857916E2,1.2570074E3,8.149087E1,2.1088472E2,1.2295415E2,2.0658919E2,6.5583636E2,1.2372612E2,4.5371555E1,2.0362088E2,5.707931E1,4.589179E2,4.7708637E1,2.4658542E2,4.4571617E1,5.8013332E1,1.9442336E2,6.916632E1,1.710436E2,1.0320812E3,1.5607445E2,3.3637747E2,1.0751991E3,2.5129428E2,1.00571313E3,5.4513725E1,1.5207545E2,4.494898E1,6.108874E2,6.3863663E1,5.9862457E1,1.3509412E2,6.8526764E1,2.4159126E2,2.1732666E2,1.0482324E2,8.960011E1,1.0533363E2,6.570996E1,9.720734E2,6.0007816E1,9.807837E1,5.7996075E1,2.6233716E2,7.404033E1,1.01363556E3,6.156355E1,4.988686E1,2.0140742E2,2.119244E2,7.937887E2],"tree_param":{"num_deleted":"0","num_feature":"59","num_nodes":"109","size_leaf_vector":"1"}},{"base_weights":[-7.5869546E-5,6.1516874E-2,-1.8660834E-1,1.6003036E-1,3.1350706E-2,-1.3808317E-1,-2.7913988E-1,3.1698734E-1,1.4128941E-1,6.0814638E-2,-2.0274956E-2,-2.328701E-1,-1.10731125E-1,-2.5711718E-1,-6.3501443E-3,1.713526E-3,4.0207645E-1,6.483554E-2,1.7056511E-1,4.111592E-2,1.3443898E-1,-6.023347E-2,4.0857583E-2,-4.743008E-3,-1.4025612E-1,-3.972584E-3,-1.3830634E-3,-4.2083943E-3,-2.4170245E-3,7.628319E-3,2.7555204E-3,3.7442774E-3,2.6990226E-2,2.2446983E-3,4.884767E-3,-2.6423933E-3,4.6694025E-2,1.0360548E-1,5.7447944E-3,-7.2170846E-2,1.85445E-3,-7.48401E-2,9.194166E-2,-3.2639082E-3,3.6911908E-4,7.821784E-2,-2.0206233E-3,3.500971E-2,1.4638506E-1,4.018543E-3,7.588955E-2,-1.17389314E-1,-2.0744283E-2,2.0339621E-2,-3.1702104E-3,4.576787E-2,2.532413E-1,2.8470472E-2,4.3299124E-3,2.9178474E-2,3.5654358E-3,2.0406932E-1,-4.172815E-4,-1.2822348E-3,1.1462376E-1,-8.2006514E-2,-3.629298E-3,1.9744627E-2,-2.3681528E-3,1.792634E-3,-2.0424074E-3,-1.5902999E-3,9.759075E-2,1.5759872E-3,6.270844E-3,1.1812528E-3,-2.3480428E-3,-1.1370376E-3,5.573462E-4,1.4917748E-3,4.9674837E-3,1.1574513E-3,5.3124703E-3,-4.263436E-3,-7.5366173E-4,8.539566E-4,-2.523017E-3,6.189741E-4,4.3058936E-3],"categories":[],"categories_nodes":[],"categories_segments":[],"categories_sizes":[],"default_left":[0,0,0,0,0,0,0,0,0,0,0,0,0,0,0,0,0,0,0,0,0,0,0,0,0,0,0,0,0,0,0,0,0,0,0,0,0,0,0,0,0,0,0,0,0,0,0,0,0,0,0,0,0,0,0,0,0,0,0,0,0,0,0,0,0,0,0,0,0,0,0,0,0,0,0,0,0,0,0,0,0,0,0,0,0,0,0,0,0],"id":10,"left_children":[1,3,5,7,9,11,13,15,17,19,21,23,25,27,-1,-1,29,31,33,35,37,39,41,-1,43,-1,-1,-1,-1,-1,-1,-1,45,-1,-1,-1,47,49,-1,51,-1,53,55,-1,-1,57,-1,59,61,-1,63,65,67,69,-1,71,73,75,-1,77,-1,79,-1,-1,81,83,-1,85,-1,-1,-1,-1,87,-1,-1,-1,-1,-1,-1,-1,-1,-1,-1,-1,-1,-1,-1,-1,-1],"loss_changes":[1.0691304E2,2.078849E1,1.0370003E1,4.8216896E0,8.146711E0,3.9270477E0,3.0134926E0,2.9015636E0,3.2779655E0,4.944336E0,4.75355E0,3.278122E0,2.4998674E0,2.5283813E0,0E0,0E0,3.5195484E0,3.0909925E0,2.04842E0,3.435699E0,6.078885E0,2.6982918E0,4.5458527E0,0E0,2.7504535E0,0E0,0E0,0E0,0E0,0E0,0E0,0E0,2.9858587E0,0E0,0E0,0E0,3.058093E0,3.2640014E0,0E0,2.5758586E0,0E0,3.3769922E0,3.9725308E0,0E0,0E0,3.000055E0,0E0,2.993904E0,2.7983546E0,0E0,3.6336634E0,2.9327698E0,3.1000829E0,2.5594778E0,0E0,3.4149852E0,3.2265215E0,2.3430781E0,0E0,2.6330538E0,0E0,3.0306358E0,0E0,0E0,3.8745356E0,2.9586508E0,0E0,3.319574E0,0E0,0E0,0E0,0E0,3.4943128E0,0E0,0E0,0E0,0E0,0E0,0E0,0E0,0E0,0E0,0E0,0E0,0E0,0E0,0E0,0E0,0E0],"parents":[2147483647,0,0,1,1,2,2,3,3,4,4,5,5,6,6,7,7,8,8,9,9,10,10,11,11,12,12,13,13,16,16,17,17,18,18,19,19,20,20,21,21,22,22,24,24,32,32,36,36,37,37,39,39,41,41,42,42,45,45,47,47,48,48,50,50,51,51,52,52,53,53,55,55,56,56,57,57,59,59,61,61,64,64,65,65,67,67,72,72],"right_children":[2,4,6,8,10,12,14,16,18,20,22,24,26,28,-1,-1,30,32,34,36,38,40,42,-1,44,-1,-1,-1,-1,-1,-1,-1,46,-1,-1,-1,48,50,-1,52,-1,54,56,-1,-1,58,-1,60,62,-1,64,66,68,70,-1,72,74,76,-1,78,-1,80,-1,-1,82,84,-1,86,-1,-1,-1,-1,88,-1,-1,-1,-1,-1,-1,-1,-1,-1,-1,-1,-1,-1,-1,-1,-1],"split_conditions":[3.1E1,7.5E0,7.1E1,3.8E0,1.8E1,1.1E1,2.01E2,-6.597702E-1,9E0,1E1,6.472332E-1,7.69E0,1.1764706E-1,1E0,-6.3501443E-3,1.713526E-3,1.0005E2,1.875E1,2.637E0,-1.382E1,3E0,1.667E1,0E0,-4.743008E-3,1E1,-3.972584E-3,-1.3830634E-3,-4.2083943E-3,-2.4170245E-3,7.628319E-3,2.7555204E-3,3.7442774E-3,9.8E1,2.2446983E-3,4.884767E-3,-2.6423933E-3,1.7E2,2.656E1,5.7447944E-3,1.01508E-1,1.85445E-3,6.818182E-1,9.38E0,-3.2639082E-3,3.6911908E-4,7.8817034E-1,-2.0206233E-3,7E1,1.034E1,4.018543E-3,2.778E1,8.93E0,1.2E1,4.1235638E-1,-3.1702104E-3,1.1E1,4.5454544E1,1E0,4.3299124E-3,8E0,3.5654358E-3,2.857E1,-4.172815E-4,-1.2822348E-3,6.3166666E0,9E0,-3.629298E-3,5.5805826E-1,-2.3681528E-3,1.792634E-3,-2.0424074E-3,-1.5902999E-3,1.0485E2,1.5759872E-3,6.270844E-3,1.1812528E-3,-2.3480428E-3,-1.1370376E-3,5.573462E-4,1.4917748E-3,4.9674837E-3,1.1574513E-3,5.3124703E-3,-4.263436E-3,-7.5366173E-4,8.539566E-4,-2.523017E-3,6.189741E-4,4.3058936E-3],"split_indices":[46,46,46,46,46,33,46,17,33,40,4,38,50,7,0,0,0,11,52,42,7,38,21,0,35,0,0,0,0,0,0,0,3,0,0,0,3,36,0,52,0,50,40,0,0,4,0,10,37,0,36,38,35,17,0,33,11,41,0,33,0,36,0,0,5,33,0,4,0,0,0,0,0,0,0,0,0,0,0,0,0,0,0,0,0,0,0,0,0],"split_type":[0,0,0,0,0,0,0,0,0,0,0,0,0,0,0,0,0,0,0,0,0,0,0,0,0,0,0,0,0,0,0,0,0,0,0,0,0,0,0,0,0,0,0,0,0,0,0,0,0,0,0,0,0,0,0,0,0,0,0,0,0,0,0,0,0,0,0,0,0,0,0,0,0,0,0,0,0,0,0,0,0,0,0,0,0,0,0,0,0],"sum_hessian":[9.305597E3,6.9956255E3,2.309971E3,1.6399357E3,5.35569E3,1.515348E3,7.94623E2,1.7489737E2,1.4650382E3,3.4097578E3,1.9459321E3,3.3931027E2,1.1760377E3,7.0463855E2,8.998444E1,5.3122616E1,1.2177476E2,4.0570364E2,1.0593346E3,2.690075E3,7.1968286E2,1.1768066E3,7.691254E2,1.5948932E2,1.7982097E2,7.908146E1,1.0969562E3,4.7155365E2,2.330849E2,7.2434685E1,4.934007E1,6.41543E1,3.4154935E2,9.975598E2,6.177483E1,6.3945236E1,2.6261296E3,6.4691693E2,7.276592E1,1.1079795E3,6.882711E1,2.3554861E2,5.3357684E2,1.1591857E2,6.3902397E1,2.627207E2,7.882863E1,2.3506677E3,2.7546207E2,8.54159E1,5.6150104E2,5.8952563E2,5.184539E2,1.4430504E2,9.1243576E1,4.148512E2,1.1872564E2,2.1596309E2,4.6757618E1,2.289591E3,6.1076645E1,2.075023E2,6.7959755E1,1.0565848E2,4.5584256E2,4.71077E2,1.1844867E2,4.068514E2,1.1160248E2,8.7632805E1,5.6672237E1,1.0202564E2,3.1282556E2,6.853161E1,5.019403E1,1.6820024E2,4.7762848E1,1.9859683E2,2.0909941E3,1.2524693E2,8.225536E1,4.0599155E2,4.9851013E1,5.361766E1,4.1745932E2,3.3744238E2,6.940903E1,2.4891331E2,6.3912254E1],"tree_param":{"num_deleted":"0","num_feature":"59","num_nodes":"89","size_leaf_vector":"1"}},{"base_weights":[-8.274668E-4,5.7832886E-2,-1.7835687E-1,1.0510823E-1,-4.784712E-3,-1.3197644E-1,-2.6672792E-1,8.562124E-2,1.8928187E-1,2.1938866E-2,-9.252117E-2,-5.856522E-3,-1.2236795E-1,-2.4570058E-1,-6.082495E-3,6.7411505E-2,1.5695007E-1,1.4756173E-1,3.1619355E-1,2.4797656E-3,1.3014376E-1,-2.805796E-3,-3.959584E-2,-1.6064777E-3,-4.999768E-3,-6.1842455E-3,-3.2239475E-3,7.736767E-2,-8.169079E-2,1.2428435E-1,2.7702978E-1,1.1987502E-1,4.344436E-3,3.0863788E-3,7.050163E-3,-3.76173E-3,8.992256E-3,-1.6425776E-3,1.9190338E-1,-6.677482E-2,2.631332E-3,7.132406E-2,4.9087335E-3,1.2069312E-3,-2.303003E-3,9.950013E-2,5.159776E-3,6.5465798E-3,2.6482765E-3,2.1323627E-3,-3.480279E-4,-4.880744E-3,1.2375894E-1,6.423708E-4,2.6605555E-1,-3.3704717E-2,-3.0440125E-3,9.02641E-2,8.8181766E-4,2.3033726E-1,5.2201357E-2,2.2138955E-2,-7.387373E-2,5.8382642E-3,3.7742395E-2,5.184235E-3,1.1490913E-3,-1.1086813E-1,6.220893E-4,9.089736E-4,2.410308E-3,8.005604E-4,-1.7820697E-3,1.3432357E-3,5.9357947E-3,1.3037228E-3,-2.8218317E-3,2.0220008E-5,2.0584674E-3,-6.0174166E-4,-3.736447E-3,-2.695869E-3,1.8322559E-3,-3.338604E-4,-3.6914067E-3],"categories":[],"categories_nodes":[],"categories_segments":[],"categories_sizes":[],"default_left":[0,0,0,0,0,0,0,0,0,0,0,0,0,0,0,0,0,0,0,0,0,0,0,0,0,0,0,0,0,0,0,0,0,0,0,0,0,0,0,0,0,0,0,0,0,0,0,0,0,0,0,0,0,0,0,0,0,0,0,0,0,0,0,0,0,0,0,0,0,0,0,0,0,0,0,0,0,0,0,0,0,0,0,0,0],"id":11,"left_children":[1,3,5,7,9,11,13,15,17,19,21,-1,23,25,-1,27,29,31,33,35,37,-1,39,-1,-1,-1,-1,41,43,45,47,49,-1,-1,-1,-1,51,-1,53,55,-1,57,-1,-1,-1,59,-1,-1,-1,-1,-1,61,63,-1,65,67,-1,69,71,73,75,77,79,-1,81,-1,-1,83,-1,-1,-1,-1,-1,-1,-1,-1,-1,-1,-1,-1,-1,-1,-1,-1,-1],"loss_changes":[9.678157E1,2.0678753E1,9.45842E0,6.5274963E0,7.045915E0,4.134802E0,2.7659264E0,4.1970005E0,3.959301E0,4.8492193E0,3.971808E0,0E0,2.7755013E0,2.2479706E0,0E0,3.8222685E0,2.576168E0,2.5136366E0,3.3107014E0,3.4311633E0,5.3542247E0,0E0,2.8919406E0,0E0,0E0,0E0,0E0,3.961008E0,2.215622E0,3.1048293E0,2.3466873E0,2.2077866E0,0E0,0E0,0E0,0E0,3.035758E0,0E0,3.0435572E0,2.073794E0,0E0,3.149786E0,0E0,0E0,0E0,2.9001346E0,0E0,0E0,0E0,0E0,0E0,3.1706583E0,5.151479E0,0E0,3.5210934E0,2.0654216E0,0E0,3.8678646E0,3.5779648E0,3.2150092E0,3.526452E0,3.1420822E0,2.8525925E0,0E0,3.3708663E0,0E0,0E0,2.278389E0,0E0,0E0,0E0,0E0,0E0,0E0,0E0,0E0,0E0,0E0,0E0,0E0,0E0,0E0,0E0,0E0,0E0],"parents":[2147483647,0,0,1,1,2,2,3,3,4,4,5,5,6,6,7,7,8,8,9,9,10,10,12,12,13,13,15,15,16,16,17,17,18,18,19,19,20,20,22,22,27,27,28,28,29,29,30,30,31,31,36,36,38,38,39,39,41,41,45,45,51,51,52,52,54,54,55,55,57,57,58,58,59,59,60,60,61,61,62,62,64,64,67,67],"right_children":[2,4,6,8,10,12,14,16,18,20,22,-1,24,26,-1,28,30,32,34,36,38,-1,40,-1,-1,-1,-1,42,44,46,48,50,-1,-1,-1,-1,52,-1,54,56,-1,58,-1,-1,-1,60,-1,-1,-1,-1,-1,62,64,-1,66,68,-1,70,72,74,76,78,80,-1,82,-1,-1,84,-1,-1,-1,-1,-1,-1,-1,-1,-1,-1,-1,-1,-1,-1,-1,-1,-1],"split_conditions":[3.1E1,1.4E1,7.1E1,1E0,1E0,8E0,2.01E2,4.8E-1,1.111E1,1.31241E0,1.1E1,-5.856522E-3,2.75E0,1E1,-6.082495E-3,1.389E1,1.132E1,8.571429E1,1.2045E0,-1.0110714E1,-1E2,-2.805796E-3,1.29E1,-1.6064777E-3,-4.999768E-3,-6.1842455E-3,-3.2239475E-3,1.1316667E1,4.090909E-1,3.076923E1,1.7647058E1,1E0,4.344436E-3,3.0863788E-3,7.050163E-3,-3.76173E-3,8.4717196E-1,-1.6425776E-3,2E0,1E0,2.631332E-3,5.8059776E1,4.9087335E-3,1.2069312E-3,-2.303003E-3,7.5E0,5.159776E-3,6.5465798E-3,2.6482765E-3,2.1323627E-3,-3.480279E-4,7.647059E-1,9.245E1,6.423708E-4,9E0,1E0,-3.0440125E-3,1.039E0,1.034E1,5.99375E2,3.175144E0,8E0,1.3333333E1,5.8382642E-3,0E0,5.184235E-3,1.1490913E-3,9.4E0,6.220893E-4,9.089736E-4,2.410308E-3,8.005604E-4,-1.7820697E-3,1.3432357E-3,5.9357947E-3,1.3037228E-3,-2.8218317E-3,2.0220008E-5,2.0584674E-3,-6.0174166E-4,-3.736447E-3,-2.695869E-3,1.8322559E-3,-3.338604E-4,-3.6914067E-3],"split_indices":[46,46,46,49,43,33,46,42,40,52,33,0,6,33,0,35,35,11,51,51,21,0,40,0,0,0,0,5,50,53,11,34,0,0,0,0,4,0,12,23,0,15,0,0,0,46,0,0,0,0,0,50,55,0,31,44,0,51,37,54,16,12,53,0,21,0,0,35,0,0,0,0,0,0,0,0,0,0,0,0,0,0,0,0,0],"split_type":[0,0,0,0,0,0,0,0,0,0,0,0,0,0,0,0,0,0,0,0,0,0,0,0,0,0,0,0,0,0,0,0,0,0,0,0,0,0,0,0,0,0,0,0,0,0,0,0,0,0,0,0,0,0,0,0,0,0,0,0,0,0,0,0,0,0,0,0,0,0,0,0,0,0,0,0,0,0,0,0,0,0,0,0,0],"sum_hessian":[9.293409E3,6.985267E3,2.308142E3,3.9802874E3,3.0049797E3,1.5137333E3,7.944088E2,3.2320864E3,7.482009E2,2.303349E3,7.016306E2,4.944342E1,1.4642899E3,7.050143E2,8.939452E1,2.574821E3,6.572653E2,5.63122E2,1.850789E2,1.9523008E3,3.5104846E2,2.3218028E2,4.6945035E2,1.4149323E3,4.935767E1,5.5092762E1,6.499215E2,2.4136824E3,1.6113889E2,5.1673615E2,1.405292E2,4.8067484E2,8.24472E1,1.21577385E2,6.350152E1,4.5969448E1,1.9063313E3,7.021588E1,2.8083258E2,4.192128E2,5.0237545E1,2.3611743E3,5.250793E1,5.296716E1,1.08171715E2,4.6885922E2,4.7876923E1,4.4960293E1,9.556892E1,3.941717E2,8.6503136E1,1.7007075E3,2.0562384E2,9.451551E1,1.8631708E2,3.433774E2,7.5835396E1,1.860789E3,5.003854E2,1.2446458E2,3.4439462E2,1.2220472E3,4.7866028E2,4.6852943E1,1.5877089E2,1.1969008E2,6.6627E1,1.7257906E2,1.7079834E2,1.4140938E3,4.4669522E2,3.4770575E2,1.5267966E2,7.3093124E1,5.1371456E1,2.9686218E2,4.7532463E1,1.0475326E3,1.7451457E2,4.1192737E2,6.6732925E1,4.561877E1,1.1315212E2,1.0961763E2,6.2961422E1],"tree_param":{"num_deleted":"0","num_feature":"59","num_nodes":"85","size_leaf_vector":"1"}},{"base_weights":[4.2727866E-4,5.8781903E-2,-1.7594042E-1,1.0116017E-1,2.8989736E-3,-1.3374768E-1,-2.69356E-1,2.1014072E-1,8.751894E-2,2.5784556E-2,-7.363374E-2,-7.4340025E-4,-1.584362E-1,-2.4694996E-1,-6.045234E-3,1.4858307E-1,3.0506107E-1,9.8382704E-2,-2.0244552E-2,-4.982126E-3,9.985017E-2,-3.479611E-3,-4.908961E-2,-3.5694782E-3,-1.8099751E-3,-6.4982492E-3,-3.2410368E-3,9.868079E-4,3.5679613E-3,6.827994E-3,3.3438504E-3,8.694351E-2,2.3995413E-1,-1.2155168E-1,1.1971123E-1,1.6119746E-2,-1.0835924E-1,1.1193451E-2,1.9430831E-1,-6.980921E-2,2.5814965E-3,9.3104586E-2,-1.6612414E-3,1.934721E-1,6.169711E-3,3.500083E-4,-2.9570835E-3,-7.819686E-4,3.2561037E-3,3.0061098E-2,-1.4408766E-1,-1.6287671E-1,1.9327363E-3,-2.6147217E-2,3.6447253E-3,1.0158699E-3,2.4838956E-1,2.0665058E-3,-8.9713216E-2,8.552865E-2,3.8282236E-3,3.83352E-3,4.3182536E-5,2.4597726E-3,1.2488329E-2,-4.249193E-3,-1.4401165E-4,-5.3158184E-3,-1.02217786E-1,-7.492983E-2,2.899209E-3,3.2152617E-1,7.024023E-4,-1.6443E-3,9.4225095E-4,9.523456E-4,2.3363691E-3,-1.2394875E-4,1.9505082E-3,-3.1732349E-3,5.978564E-4,1.8728267E-3,-1.7251403E-3,2.5855643E-3,6.194194E-3],"categories":[],"categories_nodes":[],"categories_segments":[],"categories_sizes":[],"default_left":[0,0,0,0,0,0,0,0,0,0,0,0,0,0,0,0,0,0,0,0,0,0,0,0,0,0,0,0,0,0,0,0,0,0,0,0,0,0,0,0,0,0,0,0,0,0,0,0,0,0,0,0,0,0,0,0,0,0,0,0,0,0,0,0,0,0,0,0,0,0,0,0,0,0,0,0,0,0,0,0,0,0,0,0,0],"id":12,"left_children":[1,3,5,7,9,11,13,15,17,19,21,-1,23,25,-1,27,29,31,33,35,37,-1,39,-1,-1,-1,-1,-1,-1,-1,-1,41,43,45,47,49,51,53,55,57,-1,59,-1,61,-1,-1,-1,-1,-1,63,65,67,-1,69,-1,-1,71,-1,73,75,-1,-1,-1,-1,77,-1,-1,-1,79,81,-1,83,-1,-1,-1,-1,-1,-1,-1,-1,-1,-1,-1,-1,-1],"loss_changes":[9.5208565E1,1.6461115E1,9.062851E0,5.875408E0,5.2505927E0,3.1628284E0,2.5699234E0,2.5671844E0,4.1135807E0,5.2594914E0,2.9420092E0,0E0,3.440487E0,2.2240639E0,0E0,2.1974993E0,2.0967083E0,5.16724E0,4.5614257E0,3.5572774E0,5.6715064E0,0E0,2.9142952E0,0E0,0E0,0E0,0E0,0E0,0E0,0E0,0E0,3.730978E0,2.201068E0,2.4257321E0,2.6486857E0,3.0237198E0,3.7044015E0,3.2367392E0,2.1633701E0,2.395217E0,0E0,3.8885288E0,0E0,2.9117565E0,0E0,0E0,0E0,0E0,0E0,3.169757E0,2.291121E0,2.9502144E0,0E0,3.4408422E0,0E0,0E0,3.295989E0,0E0,2.1687126E0,3.9476624E0,0E0,0E0,0E0,0E0,2.9872935E0,0E0,0E0,0E0,3.1539927E0,2.4935365E0,0E0,2.715063E0,0E0,0E0,0E0,0E0,0E0,0E0,0E0,0E0,0E0,0E0,0E0,0E0,0E0],"parents":[2147483647,0,0,1,1,2,2,3,3,4,4,5,5,6,6,7,7,8,8,9,9,10,10,12,12,13,13,15,15,16,16,17,17,18,18,19,19,20,20,22,22,31,31,32,32,33,33,34,34,35,35,36,36,37,37,38,38,39,39,41,41,43,43,49,49,50,50,51,51,53,53,56,56,58,58,59,59,64,64,68,68,69,69,71,71],"right_children":[2,4,6,8,10,12,14,16,18,20,22,-1,24,26,-1,28,30,32,34,36,38,-1,40,-1,-1,-1,-1,-1,-1,-1,-1,42,44,46,48,50,52,54,56,58,-1,60,-1,62,-1,-1,-1,-1,-1,64,66,68,-1,70,-1,-1,72,-1,74,76,-1,-1,-1,-1,78,-1,-1,-1,80,82,-1,84,-1,-1,-1,-1,-1,-1,-1,-1,-1,-1,-1,-1,-1],"split_conditions":[3.1E1,1.4E1,8.1E1,4.8E0,1E0,0E0,2.01E2,9.38718E-1,1E0,1.4202083E0,9E0,-7.4340025E-4,1.1E1,1E1,-6.045234E-3,1E1,2.963E1,4.545E1,1.1E1,1.11E0,2.857E1,-3.479611E-3,1.63E1,-3.5694782E-3,-1.8099751E-3,-6.4982492E-3,-3.2410368E-3,9.868079E-4,3.5679613E-3,6.827994E-3,3.3438504E-3,2.8571428E1,8.4286517E-1,5.5338223E1,8.02E0,2.43594E3,8E0,4E2,2.3529411E1,5E0,2.5814965E-3,4.5454544E1,-1.6612414E-3,5.7606182E1,6.169711E-3,3.500083E-4,-2.9570835E-3,-7.819686E-4,3.2561037E-3,1E1,2.9411764E1,2.35E0,1.9327363E-3,9.79665E-1,3.6447253E-3,1.0158699E-3,8.125E-1,2.0665058E-3,8.33E0,4.8E-1,3.8282236E-3,3.83352E-3,4.3182536E-5,2.4597726E-3,9.91E1,-4.249193E-3,-1.4401165E-4,-5.3158184E-3,2E0,-5.1666665E-1,2.899209E-3,7.1346277E-1,7.024023E-4,-1.6443E-3,9.4225095E-4,9.523456E-4,2.3363691E-3,-1.2394875E-4,1.9505082E-3,-3.1732349E-3,5.978564E-4,1.8728267E-3,-1.7251403E-3,2.5855643E-3,6.194194E-3],"split_indices":[46,46,46,46,43,16,46,52,44,51,33,0,33,33,0,33,36,39,13,6,36,0,38,0,0,0,0,0,0,0,0,25,4,15,35,54,12,21,11,39,0,28,0,15,0,0,0,0,0,13,11,38,0,52,0,0,50,0,40,42,0,0,0,0,0,0,0,0,6,5,0,4,0,0,0,0,0,0,0,0,0,0,0,0,0],"split_type":[0,0,0,0,0,0,0,0,0,0,0,0,0,0,0,0,0,0,0,0,0,0,0,0,0,0,0,0,0,0,0,0,0,0,0,0,0,0,0,0,0,0,0,0,0,0,0,0,0,0,0,0,0,0,0,0,0,0,0,0,0,0,0,0,0,0,0,0,0,0,0,0,0,0,0,0,0,0,0,0,0,0,0,0,0],"sum_hessian":[9.250906E3,6.951047E3,2.2998591E3,3.9531375E3,2.9979094E3,1.584324E3,7.1553503E2,4.3973254E2,3.5134048E3,2.3078547E3,6.9005457E2,3.7053574E2,1.2137883E3,6.279088E2,8.7626205E1,2.6677502E2,1.7295753E2,3.1916917E3,3.2171323E2,1.6304883E3,6.773665E2,8.537067E1,6.046839E2,2.884341E2,9.253542E2,4.4685078E1,5.8322375E2,1.5282486E2,1.13950165E2,4.6957577E1,1.25999954E2,2.9531099E3,2.3858173E2,1.8664484E2,1.3506837E2,1.3540464E3,2.764419E2,3.4943988E2,3.2792664E2,5.552546E2,4.9429306E1,2.8669978E3,8.611222E1,1.9338078E2,4.5200947E1,7.0394455E1,1.1625039E2,5.25833E1,8.248507E1,1.245677E3,1.0836933E2,2.262731E2,5.0168804E1,3.0368936E2,4.5750523E1,1.00704506E2,2.2722212E2,4.6679325E1,5.0857526E2,2.7506763E3,1.163214E2,1.3659587E2,5.678491E1,1.3474562E2,1.1109314E3,4.9673843E1,5.8695488E1,4.9753353E1,1.7651974E2,2.5100067E2,5.2688683E1,1.6601337E2,6.120875E1,4.3336755E2,7.520768E1,2.2529211E3,4.977552E2,9.504667E2,1.6046477E2,9.529159E1,8.122816E1,4.68174E1,2.0418327E2,7.695955E1,8.905382E1],"tree_param":{"num_deleted":"0","num_feature":"59","num_nodes":"85","size_leaf_vector":"1"}},{"base_weights":[1.0095042E-3,5.772796E-2,-1.7252527E-1,1.3568169E-1,2.547839E-2,-1.2991177E-1,-2.6673874E-1,1.1012761E-1,2.221206E-1,4.7900982E-2,-2.959115E-2,-5.573003E-3,-1.21403694E-1,-2.448165E-1,-5.9545916E-3,3.4798518E-2,1.3838543E-1,2.1068088E-3,5.408864E-3,-5.2700885E-2,6.0266204E-2,-4.2080734E-2,3.4570328E-3,-1.2940656E-1,7.490111E-4,-2.1412512E-3,-3.941158E-3,-4.603211E-3,4.32281E-3,1.7303556E-1,5.7654414E-2,5.1544895E-3,-2.510524E-3,5.1142476E-2,2.043952E-1,9.06639E-2,-6.1904654E-2,-1.5085964E-1,-6.280902E-2,7.321077E-2,-1.7934765E-3,5.545336E-3,1.5989967E-1,-5.4546017E-3,3.8063894E-3,3.4706283E-3,-4.614664E-2,-1.7565595E-2,6.8722956E-2,3.268141E-1,1.7412356E-4,-1.5091826E-3,1.749423E-1,-1.0468614E-1,-3.0469208E-4,-3.1991946E-3,-1.6632945E-3,-1.0096933E-1,1.334658E-3,3.5598502E-3,1.7606184E-2,2.4979329E-3,-0E0,8.09136E-2,-2.1294146E-3,-3.0946154E-3,2.648138E-2,-4.804203E-2,2.3083524E-3,5.221614E-2,1.8001288E-1,2.650703E-3,6.862582E-3,5.3930315E-3,8.168039E-4,-8.14902E-2,-4.12007E-3,-3.2947432E-2,-3.265972E-3,2.3614203E-3,-1.0819735E-3,-8.351698E-4,2.8981338E-3,1.4514069E-3,-2.1619154E-3,-1.4062537E-4,-3.8778658E-3,4.275734E-3,6.2597106E-4,1.5808371E-3,5.046028E-3,-1.4854813E-3,1.8840956E-3,1.9769676E-3,-1.4974091E-3],"categories":[],"categories_nodes":[],"categories_segments":[],"categories_sizes":[],"default_left":[0,0,0,0,0,0,0,0,0,0,0,0,0,0,0,0,0,0,0,0,0,0,0,0,0,0,0,0,0,0,0,0,0,0,0,0,0,0,0,0,0,0,0,0,0,0,0,0,0,0,0,0,0,0,0,0,0,0,0,0,0,0,0,0,0,0,0,0,0,0,0,0,0,0,0,0,0,0,0,0,0,0,0,0,0,0,0,0,0,0,0,0,0,0,0],"id":13,"left_children":[1,3,5,7,9,11,13,15,17,19,21,-1,23,25,-1,27,29,-1,-1,31,33,35,-1,37,-1,-1,-1,39,-1,41,43,45,-1,47,49,51,53,55,57,59,-1,-1,61,63,-1,-1,65,67,69,71,-1,-1,73,75,-1,-1,-1,77,-1,-1,79,-1,-1,81,-1,-1,83,85,-1,87,89,-1,-1,-1,-1,91,-1,93,-1,-1,-1,-1,-1,-1,-1,-1,-1,-1,-1,-1,-1,-1,-1,-1,-1],"loss_changes":[9.048536E1,1.741781E1,9.089783E0,4.476982E0,6.052045E0,3.5313263E0,2.4190063E0,3.3303833E0,5.4327774E0,4.33283E0,4.87693E0,0E0,2.112564E0,2.0266533E0,0E0,4.5870814E0,3.1822567E0,0E0,0E0,2.7756639E0,4.077669E0,3.5697765E0,0E0,2.063324E0,0E0,0E0,0E0,3.5683014E0,0E0,2.3116035E0,4.5958996E0,3.2375734E0,0E0,3.5240092E0,4.3383646E0,2.9408798E0,2.0313606E0,2.7271118E0,2.1190748E0,2.283658E0,0E0,0E0,2.1296673E0,3.3241076E0,0E0,0E0,2.720944E0,3.290497E0,4.2661657E0,2.5099802E0,0E0,0E0,3.0108E0,2.496492E0,0E0,0E0,0E0,2.5302556E0,0E0,0E0,2.480092E0,0E0,0E0,2.9090974E0,0E0,0E0,2.0998704E0,4.4073896E0,0E0,3.9234524E0,3.623908E0,0E0,0E0,0E0,0E0,2.648731E0,0E0,2.3828735E0,0E0,0E0,0E0,0E0,0E0,0E0,0E0,0E0,0E0,0E0,0E0,0E0,0E0,0E0,0E0,0E0,0E0],"parents":[2147483647,0,0,1,1,2,2,3,3,4,4,5,5,6,6,7,7,8,8,9,9,10,10,12,12,13,13,15,15,16,16,19,19,20,20,21,21,23,23,27,27,29,29,30,30,31,31,33,33,34,34,35,35,36,36,37,37,38,38,39,39,42,42,43,43,46,46,47,47,48,48,49,49,52,52,53,53,57,57,60,60,63,63,66,66,67,67,69,69,70,70,75,75,77,77],"right_children":[2,4,6,8,10,12,14,16,18,20,22,-1,24,26,-1,28,30,-1,-1,32,34,36,-1,38,-1,-1,-1,40,-1,42,44,46,-1,48,50,52,54,56,58,60,-1,-1,62,64,-1,-1,66,68,70,72,-1,-1,74,76,-1,-1,-1,78,-1,-1,80,-1,-1,82,-1,-1,84,86,-1,88,90,-1,-1,-1,-1,92,-1,94,-1,-1,-1,-1,-1,-1,-1,-1,-1,-1,-1,-1,-1,-1,-1,-1,-1],"split_conditions":[3.1E1,8.5E0,8.1E1,1.163E1,2E1,8E0,2.01E2,9E0,1.2045E0,1E1,2.7E1,-5.573003E-3,1.05532E2,9.090909E0,-5.9545916E-3,1.61E0,1.089E1,2.1068088E-3,5.408864E-3,1.6E1,4.545E1,-2.8333333E-1,3.4570328E-3,7.80234E-1,7.490111E-4,-2.1412512E-3,-3.941158E-3,3.4782608E1,4.32281E-3,3.9E0,9.9332E1,3.6E-1,-2.510524E-3,9.28E1,8E0,-2.1155128E0,1.3E1,1.2E1,2E0,-7.711064E-1,-1.7934765E-3,5.545336E-3,1E0,6.556E0,3.8063894E-3,3.4706283E-3,9.588E1,7.5E1,1.6363636E1,4.090909E-1,1.7412356E-4,-1.5091826E-3,3.61E0,7E0,-3.0469208E-4,-3.1991946E-3,-1.6632945E-3,5.1E1,1.334658E-3,3.5598502E-3,6.17E0,2.4979329E-3,-0E0,1E0,-2.1294146E-3,-3.0946154E-3,1.028E2,1.7647058E1,2.3083524E-3,1.429E1,8.1E1,2.650703E-3,6.862582E-3,5.3930315E-3,8.168039E-4,1.471E1,-4.12007E-3,9.915E1,-3.265972E-3,2.3614203E-3,-1.0819735E-3,-8.351698E-4,2.8981338E-3,1.4514069E-3,-2.1619154E-3,-1.4062537E-4,-3.8778658E-3,4.275734E-3,6.2597106E-4,1.5808371E-3,5.046028E-3,-1.4854813E-3,1.8840956E-3,1.9769676E-3,-1.4974091E-3],"split_indices":[46,46,46,40,46,33,46,33,51,36,46,0,55,11,0,42,37,0,0,46,39,5,0,52,0,0,0,11,0,46,55,6,0,0,31,51,33,33,23,17,0,0,44,46,0,0,1,11,53,50,0,0,37,12,0,0,0,46,0,0,35,0,0,14,0,0,2,22,0,36,3,0,0,0,0,40,0,2,0,0,0,0,0,0,0,0,0,0,0,0,0,0,0,0,0],"split_type":[0,0,0,0,0,0,0,0,0,0,0,0,0,0,0,0,0,0,0,0,0,0,0,0,0,0,0,0,0,0,0,0,0,0,0,0,0,0,0,0,0,0,0,0,0,0,0,0,0,0,0,0,0,0,0,0,0,0,0,0,0,0,0,0,0,0,0,0,0,0,0,0,0,0,0,0,0,0,0,0,0,0,0,0,0,0,0,0,0,0,0,0,0,0,0],"sum_hessian":[9.193272E3,6.928708E3,2.264565E3,2.0275527E3,4.9011553E3,1.5593226E3,7.0524225E2,1.5649579E3,4.6259485E2,3.483053E3,1.418102E3,4.8247368E1,1.5110753E3,6.187022E2,8.654003E1,4.2695676E2,1.1380011E3,3.2014767E2,1.4244717E2,3.8120724E2,3.101846E3,1.3565991E3,6.150294E1,1.4448995E3,6.617574E1,1.7129552E2,4.474067E2,3.7301917E2,5.3937595E1,7.962057E2,3.417954E2,2.611018E2,1.2010544E2,2.9172126E3,1.8463321E2,1.7623724E2,1.1803619E3,1.0928021E3,3.520974E2,2.2839883E2,1.4462033E2,4.4596912E1,7.5160876E2,2.6365677E2,7.8138626E1,4.5743298E1,2.153585E2,5.9429834E2,2.3229143E3,1.1273406E2,7.189915E1,5.2605328E1,1.2363191E2,5.7204816E2,6.083137E2,3.2603748E2,7.6676465E2,2.8352582E2,6.8571594E1,5.390196E1,1.7449687E2,6.766242E2,7.498453E1,1.6562178E2,9.8034996E1,6.346466E1,1.5189384E2,5.0895993E2,8.533844E1,2.022914E3,3.0000037E2,6.068021E1,5.2053852E1,4.438532E1,7.92466E1,5.0932513E2,6.2723057E1,1.8677455E2,9.6751274E1,6.739717E1,1.070997E2,7.8070816E1,8.7550964E1,1.06555046E2,4.533879E1,4.3611774E2,7.284218E1,6.004247E1,1.9628715E3,2.1770868E2,8.2291695E1,4.5803528E2,5.128986E1,5.5568928E1,1.3120563E2],"tree_param":{"num_deleted":"0","num_feature":"59","num_nodes":"95","size_leaf_vector":"1"}},{"base_weights":[-6.066914E-4,5.4283865E-2,-1.680331E-1,1.2979792E-1,2.3343896E-2,-1.234608E-1,-2.5438574E-1,2.9642448E-1,1.17751665E-1,4.3520622E-2,-4.6377786E-2,-1.9400582E-1,-9.210239E-2,-1.6184141E-3,-2.7693868E-1,5.678616E-3,1.8016989E-3,9.796649E-2,2.0583045E-1,2.9996939E-2,1.4908242E-1,-1.3197073E-1,-1.719947E-2,-3.9699976E-3,-1.8038761E-3,-4.3332246E-3,-7.953372E-2,-3.5815535E-3,-6.268873E-3,1.0742241E-1,-2.642751E-3,7.514065E-2,2.9008898E-1,2.0759923E-2,1.3155022E-1,2.6020995E-1,8.5646614E-2,-4.0960353E-5,-1.9793637E-1,4.166962E-2,-1.0678819E-3,-5.412228E-4,-1.3180126E-1,2.8792042E-1,9.119648E-2,4.1400203E-3,-8.191545E-4,2.1673501E-3,5.4735425E-3,1.4516272E-2,3.098677E-3,-1.6191766E-3,1.8587862E-1,1.545913E-1,6.837376E-3,2.3446495E-3,-3.8592098E-4,-4.4338975E-2,-4.8963916E-3,7.515694E-2,-1.9299013E-3,5.711483E-4,-1.6273525E-1,1.7736615E-3,5.6160777E-3,-1.7506422E-2,1.1331248E-1,8.985124E-3,2.7458377E-3,2.6923788E-1,5.8790896E-4,4.278408E-3,1.4020916E-4,1.5343879E-3,-2.81322E-3,4.7732354E-4,3.4635242E-3,-5.6059205E-4,-3.0683272E-3,-3.2008546E-3,8.657965E-4,-1.0906801E-3,1.8161362E-3,3.5599267E-4,-8.6235604E-4,5.0919917E-3,8.9891494E-4],"categories":[],"categories_nodes":[],"categories_segments":[],"categories_sizes":[],"default_left":[0,0,0,0,0,0,0,0,0,0,0,0,0,0,0,0,0,0,0,0,0,0,0,0,0,0,0,0,0,0,0,0,0,0,0,0,0,0,0,0,0,0,0,0,0,0,0,0,0,0,0,0,0,0,0,0,0,0,0,0,0,0,0,0,0,0,0,0,0,0,0,0,0,0,0,0,0,0,0,0,0,0,0,0,0,0,0],"id":14,"left_children":[1,3,5,7,9,11,13,15,17,19,21,23,25,-1,27,-1,-1,29,31,33,35,37,39,-1,-1,-1,41,-1,-1,43,-1,45,47,49,51,53,55,-1,57,59,-1,-1,61,63,65,-1,-1,-1,-1,67,-1,-1,69,71,-1,-1,-1,73,-1,75,-1,-1,77,-1,-1,79,81,83,-1,85,-1,-1,-1,-1,-1,-1,-1,-1,-1,-1,-1,-1,-1,-1,-1,-1,-1],"loss_changes":[8.414555E1,1.6109587E1,8.699318E0,4.0205307E0,6.880884E0,3.2971401E0,2.4159431E0,2.4384985E0,3.2554493E0,5.414778E0,2.7408638E0,2.6608047E0,2.8008394E0,0E0,2.4862442E0,0E0,0E0,4.1253157E0,3.7727232E0,3.153738E0,3.0350084E0,2.3745985E0,2.8309674E0,0E0,0E0,0E0,2.092235E0,0E0,0E0,4.3248844E0,0E0,3.9312E0,2.8058548E0,3.8399057E0,3.7572713E0,3.7323742E0,2.5151927E0,0E0,4.258451E0,2.449024E0,0E0,0E0,2.2890687E0,2.193739E0,3.2591915E0,0E0,0E0,0E0,0E0,2.9869647E0,0E0,0E0,2.7577438E0,2.3069227E0,0E0,0E0,0E0,2.1819172E0,0E0,2.4277291E0,0E0,0E0,2.4773607E0,0E0,0E0,3.8070617E0,3.4029112E0,3.3292031E0,0E0,2.7717056E0,0E0,0E0,0E0,0E0,0E0,0E0,0E0,0E0,0E0,0E0,0E0,0E0,0E0,0E0,0E0,0E0,0E0],"parents":[2147483647,0,0,1,1,2,2,3,3,4,4,5,5,6,6,7,7,8,8,9,9,10,10,11,11,12,12,14,14,17,17,18,18,19,19,20,20,21,21,22,22,26,26,29,29,31,31,32,32,33,33,34,34,35,35,36,36,38,38,39,39,42,42,43,43,44,44,49,49,52,52,53,53,57,57,59,59,62,62,65,65,66,66,67,67,69,69],"right_children":[2,4,6,8,10,12,14,16,18,20,22,24,26,-1,28,-1,-1,30,32,34,36,38,40,-1,-1,-1,42,-1,-1,44,-1,46,48,50,52,54,56,-1,58,60,-1,-1,62,64,66,-1,-1,-1,-1,68,-1,-1,70,72,-1,-1,-1,74,-1,76,-1,-1,78,-1,-1,80,82,84,-1,86,-1,-1,-1,-1,-1,-1,-1,-1,-1,-1,-1,-1,-1,-1,-1,-1,-1],"split_conditions":[3.1E1,8.5E0,7.1E1,3.6E0,1E0,1.2E1,7.69E0,1.0635E2,1.00725E2,1.765E1,1E1,2.222E1,2E0,-1.6184141E-3,2.01E2,5.678616E-3,1.8016989E-3,2.8571428E1,2.745E1,1.1924471E-1,9.09E0,8.291665E-2,1.7E1,-3.9699976E-3,-1.8038761E-3,-4.3332246E-3,1E1,-3.5815535E-3,-6.268873E-3,1.25E-1,-2.642751E-3,3.4782608E1,7.0309216E-1,7.777778E1,-2E2,6E0,9.429734E-2,-4.0960353E-5,1.4E1,1E0,-1.0678819E-3,-5.412228E-4,2.86E0,5.6699E1,8E0,4.1400203E-3,-8.191545E-4,2.1673501E-3,5.4735425E-3,5.116E1,3.098677E-3,-1.6191766E-3,1E0,1.1E1,6.837376E-3,2.3446495E-3,-3.8592098E-4,9E0,-4.8963916E-3,8.1E1,-1.9299013E-3,5.711483E-4,5.5338223E1,1.7736615E-3,5.6160777E-3,9.41244E1,1E1,5.8059776E1,2.7458377E-3,9.07184E-1,5.8790896E-4,4.278408E-3,1.4020916E-4,1.5343879E-3,-2.81322E-3,4.7732354E-4,3.4635242E-3,-5.6059205E-4,-3.0683272E-3,-3.2008546E-3,8.657965E-4,-1.0906801E-3,1.8161362E-3,3.5599267E-4,-8.6235604E-4,5.0919917E-3,8.9891494E-4],"split_indices":[46,46,46,46,43,33,40,2,1,40,33,39,31,0,46,0,0,25,39,58,37,57,46,0,0,0,31,0,0,6,0,11,4,10,21,12,57,0,46,41,0,0,36,15,33,0,0,0,0,39,0,0,14,13,0,0,0,33,0,3,0,0,15,0,0,55,36,15,0,16,0,0,0,0,0,0,0,0,0,0,0,0,0,0,0,0,0],"split_type":[0,0,0,0,0,0,0,0,0,0,0,0,0,0,0,0,0,0,0,0,0,0,0,0,0,0,0,0,0,0,0,0,0,0,0,0,0,0,0,0,0,0,0,0,0,0,0,0,0,0,0,0,0,0,0,0,0,0,0,0,0,0,0,0,0,0,0,0,0,0,0,0,0,0,0,0,0,0,0,0,0,0,0,0,0,0,0],"sum_hessian":[9.156021E3,6.895357E3,2.260664E3,2.004032E3,4.891325E3,1.491077E3,7.695869E2,1.3508618E2,1.8689458E3,3.793574E3,1.0977511E3,4.587967E2,1.0322804E3,1.07262215E2,6.623247E2,8.2458275E1,5.2627903E1,1.5261755E3,3.427703E2,3.3628057E3,4.3076825E2,2.7903912E2,8.187119E2,1.9578201E2,2.6301468E2,5.6737656E1,9.755427E2,5.851744E2,7.7150345E1,1.4773282E3,4.8847244E1,1.343866E2,2.083837E2,3.0824795E3,2.803263E2,1.5651213E2,2.742561E2,9.4408195E1,1.8463094E2,4.0884512E2,4.098668E2,5.4646277E2,4.2907996E2,1.2182646E2,1.3555018E3,5.0847557E1,8.353903E1,8.787697E1,1.2050674E2,2.9889949E3,9.348465E1,5.0578625E1,2.2974768E2,1.0667462E2,4.9837513E1,1.5976335E2,1.1449277E2,9.130839E1,9.3322556E1,3.4440457E2,6.444057E1,6.524933E1,3.6383063E2,4.969902E1,7.212744E1,2.2912155E2,1.1263802E3,2.9002615E3,8.8733444E1,1.455189E2,8.4228775E1,5.24125E1,5.4262123E1,